{"version": "0.5.4", "metadata": {"date": {"year": 2025, "month": 11, "day": 19, "hour": 20, "minute": 35, "second": 28}, "loudness": -17.98596954345703, "gain": 0.8262016821875774, "name": "", "modeled_by": "", "gear_type": "amp", "gear_make": "", "gear_model": "", "tone_type": "clean", "input_level_dbu": null, "output_level_dbu": null, "training": {"settings": {"ignore_checks": false}, "data": {"latency": {"manual": null, "calibration": {"algorithm_version": 1, "delays": [0], "safety_factor": 1, "recommended": -1, "warnings": {"matches_lookahead": false, "disagreement_too_high": false, "not_detected": false}}}, "checks": {"version": 3, "passed": true}}, "validation_esr": 0.00047138993921474125}}, "architecture": "WaveNet", "config": {"layers": [{"input_size": 1, "condition_size": 1, "head_size": 8, "channels": 16, "kernel_size": 3, "dilations": [1, 2, 4, 8, 16, 32, 64, 128, 256, 512], "activation": "Tanh", "gated": false, "head_bias": false}, {"input_size": 16, "condition_size": 1, "head_size": 1, "channels": 8, "kernel_size": 3, "dilations": [1, 2, 4, 8, 16, 32, 64, 128, 256, 512], "activation": "Tanh", "gated": false, "head_bias": true}], "head": null, "head_scale": 0.02}, "weights": [0.007035549730062485, 0.4461279809474945, -0.8496068120002747, -0.7929584383964539, -0.3570849895477295, 0.2874978482723236, -0.12303829938173294, 0.8352394104003906, -0.1420140266418457, 0.26950716972351074, -0.23376886546611786, -0.22597365081310272, -1.0181106328964233, -0.6832671165466309, -0.39813584089279175, -0.00661926856264472, 0.009376822970807552, 0.030209818854928017, -0.06085306406021118, 0.009138385765254498, -0.05197446048259735, 0.09398751705884933, -0.10481961816549301, 0.21251678466796875, 0.0022395215928554535, -0.062132902443408966, 0.23445090651512146, -0.11179465800523758, -0.16134755313396454, 0.07301407307386398, -0.027481358498334885, 0.20063000917434692, -0.19131037592887878, -0.08312701433897018, -0.20232532918453217, -0.0380793996155262, -0.07760951668024063, 0.19968104362487793, -0.042320430278778076, 0.0477251298725605, -0.07147185504436493, 0.021249646320939064, 0.037705253809690475, -0.059047773480415344, -0.19970637559890747, -0.095884770154953, 0.01825258880853653, 0.1770297735929489, -0.04507124051451683, -0.07723325490951538, 0.19884374737739563, 0.161159485578537, -0.01649424247443676, 0.12573932111263275, 0.11850789189338684, -0.1588706374168396, 0.1328437477350235, -0.08842756599187851, -0.17247138917446136, 0.02861831523478031, 0.09142516553401947, 0.0072543565183877945, -0.026674043387174606, 0.06368979811668396, -0.02544446475803852, -0.03846513479948044, 0.010787435807287693, 0.20373375713825226, -0.1523239016532898, 0.2645246982574463, -0.2886255085468292, 0.19287322461605072, -0.07459723949432373, -0.05907760187983513, 0.37022948265075684, -0.005668593570590019, -0.14704537391662598, 0.11918588727712631, -0.11586412787437439, 0.08504599332809448, -0.37507694959640503, 0.2630445063114166, -0.1255839765071869, 0.09578341245651245, -0.15922251343727112, 0.15413059294223785, -0.27213335037231445, 0.06831031292676926, -0.12810124456882477, 0.144990473985672, -0.09242060035467148, 0.24861536920070648, -0.13315215706825256, 0.18683509528636932, -0.3151647746562958, 0.13427312672138214, -0.05950165539979935, -0.15440084040164948, 0.12637029588222504, -0.22406411170959473, -0.04263680428266525, 0.34670475125312805, -0.19676905870437622, -0.2124764770269394, 0.11040552705526352, -0.1344316601753235, -0.28675803542137146, 0.12454720586538315, -0.14310814440250397, -0.14392749965190887, -0.04466579854488373, -0.04585782811045647, -0.06697347015142441, 0.04003837704658508, 0.08263295143842697, -0.07930334657430649, 0.050708502531051636, -0.09110786765813828, -0.02040732093155384, -0.05732709541916847, 0.15563862025737762, -0.032755400985479355, -0.15804915130138397, 0.1703115999698639, -0.17411436140537262, -0.16921550035476685, 0.06536227464675903, -0.03936504200100899, 0.02998420037329197, -0.23013532161712646, -0.04895821958780289, -0.04376684129238129, 0.03744174540042877, 0.03368604928255081, 0.1914910525083542, -0.11682416498661041, -0.005669434554874897, -0.0732026994228363, 0.16625140607357025, 0.12365053594112396, 0.21939313411712646, -0.01997021771967411, 0.10324888676404953, -0.08991674333810806, -0.022415652871131897, -0.0933065414428711, 0.020441196858882904, 0.1063813865184784, -0.11356808990240097, -0.20122525095939636, -0.03407119959592819, -0.16139726340770721, -0.11786393076181412, 0.1820071041584015, 0.040294088423252106, -0.22373540699481964, 0.19484829902648926, -0.12296198308467865, -0.005692499224096537, -0.04882405325770378, -0.1343403309583664, 0.015746019780635834, -0.1597657948732376, -0.15774504840373993, -0.07274898886680603, 0.08454544097185135, -0.033529844135046005, 0.10908962786197662, -0.21209102869033813, 0.023314807564020157, 0.17716753482818604, -0.14330655336380005, 0.15364205837249756, 0.094633087515831, -0.21825160086154938, 0.06253661960363388, -0.06574849039316177, 0.027608510106801987, 0.11915753036737442, -0.0880734845995903, -0.09736772626638412, -0.06439942121505737, 0.05128501355648041, 0.1251596063375473, 0.08674555271863937, 0.08781988173723221, -0.1452726423740387, -0.058354269713163376, -0.1715412437915802, 0.1707448810338974, 0.14217247068881989, 0.14521773159503937, -0.19347450137138367, 0.02284756675362587, -0.06626090407371521, -0.1732339709997177, -0.05056733265519142, 0.10351239144802094, -0.16988451778888702, 0.029313156381249428, 0.05895110219717026, 0.007141770329326391, -0.07763004302978516, -0.04933951795101166, -0.17118071019649506, 0.03731078654527664, -0.15741834044456482, 0.115995392203331, 0.012267567217350006, 0.04991322010755539, -0.017665274441242218, -0.10630537569522858, -0.07117122411727905, 0.0294270608574152, 0.07760796695947647, 0.11160806566476822, -0.17542816698551178, 0.004416720941662788, 0.20788422226905823, -0.18053077161312103, 0.06216258928179741, 0.2292506843805313, -0.013684785924851894, -0.07344798743724823, -0.21600089967250824, 0.13405929505825043, -0.02149921841919422, 0.0632823035120964, -0.10862675309181213, -0.10264910012483597, -0.09056791663169861, 0.1813177615404129, 0.08550426363945007, 0.20485739409923553, 0.011820265091955662, -0.16593365371227264, -0.02426833286881447, -0.03337470442056656, 0.015170694328844547, 0.1287800669670105, -0.015601015649735928, 0.17483510076999664, 0.03430413082242012, -0.06252360343933105, 0.1543678343296051, -0.045060060918331146, 0.04240827634930611, -0.040080875158309937, 0.09509143978357315, -0.08757755905389786, 0.0018404562724754214, 0.10793381184339523, 0.054680127650499344, -0.078581303358078, -0.09482621401548386, -0.104448102414608, -0.08504220843315125, -0.03383183106780052, -0.09315317869186401, -0.10789506882429123, 0.018015872687101364, -0.009394132532179356, 0.09282323718070984, 0.001066925236955285, 0.15002593398094177, -0.03183877095580101, -0.14363418519496918, 0.1421157717704773, 0.13807792961597443, -0.06083852797746658, 0.02851823903620243, -0.09637470543384552, -0.04075872525572777, -0.08208703994750977, -0.01926901564002037, -0.20608235895633698, 0.27256113290786743, -0.11014916747808456, 0.08844874799251556, -0.058525364845991135, 0.06110917031764984, -0.17542292177677155, 0.02883147820830345, 0.0876070111989975, 0.12433940917253494, 0.006988672073930502, -0.023646138608455658, -0.05078022927045822, 0.07467792183160782, 0.03095969744026661, -0.17865552008152008, 0.1586853563785553, 0.06101866066455841, -0.11020088940858841, 0.06606223434209824, -0.0720277950167656, -0.005300259217619896, -0.007016810588538647, 0.07931152731180191, -0.15023688971996307, 0.03473049774765968, 0.021113218739628792, -0.06182048097252846, 0.003022916615009308, 0.014589879661798477, -0.24855656921863556, -0.026453889906406403, 0.07345683872699738, 0.15907099843025208, -0.11560561507940292, -0.12969060242176056, -0.1303934007883072, 0.14814715087413788, -0.06350681930780411, -0.04848869517445564, 0.19722691178321838, -0.08362887799739838, -0.10131672769784927, 0.1576918363571167, 0.010985283181071281, 0.107329361140728, -0.09308449178934097, -0.1080305203795433, -0.08861758559942245, 0.22136446833610535, 0.13988161087036133, 0.1888190507888794, -0.08236384391784668, 0.09233734011650085, -0.14451375603675842, 0.017055625095963478, -0.12513776123523712, 0.23976971209049225, -0.021076055243611336, -0.10220199078321457, -0.03674216568470001, 0.2173577845096588, 0.14606545865535736, 0.028162119910120964, 0.21453970670700073, -0.04423503950238228, -0.15692417323589325, 0.21924947202205658, 0.0712776705622673, -0.19152426719665527, 0.2314615547657013, 0.06180097535252571, -0.022090135142207146, 0.013079341500997543, 0.00931374542415142, -0.07089132070541382, 0.09709157049655914, -0.07306372374296188, -0.02347606047987938, 0.09225226938724518, 0.24048279225826263, 0.12755689024925232, -0.03785930946469307, -0.281073659658432, -0.14882242679595947, 0.014964783564209938, -0.3262421190738678, -0.299813449382782, 0.22461749613285065, -0.10204631090164185, -0.044699423015117645, 0.22738248109817505, 0.05089288577437401, 0.08211580663919449, -0.13589613139629364, -0.2813880145549774, -0.08851351588964462, 0.02136225439608097, 0.11608028411865234, 0.044560506939888, -0.18822622299194336, -0.048907022923231125, -0.0498703271150589, 0.23702025413513184, 0.2887864410877228, 0.3093300461769104, -0.15291926264762878, -0.11697477847337723, -0.05150369927287102, 0.15634816884994507, -0.029883941635489464, -0.10145866125822067, 0.20389117300510406, -0.2364366501569748, -0.11632606387138367, 0.12238483875989914, -0.21899570524692535, -0.26452696323394775, 0.027979450300335884, -0.29118841886520386, -0.08533059805631638, 0.21528694033622742, -0.10874968767166138, -0.15216103196144104, 0.18439432978630066, 0.14068444073200226, -0.09305083006620407, -0.08128434419631958, 0.12820641696453094, 0.21410119533538818, -0.18256796896457672, 0.14673581719398499, -0.053375691175460815, 0.025606727227568626, 0.08924157917499542, -0.24033060669898987, 0.05686039477586746, 0.13525918126106262, -0.14763638377189636, -0.023328250274062157, -0.06468403339385986, 0.11313478648662567, -0.11852868646383286, 0.05302225798368454, -0.013417789712548256, 0.1196214035153389, -0.095970518887043, 0.16826845705509186, -0.00925112422555685, 0.1121462881565094, -0.26773157715797424, 0.0948125347495079, -0.12210901081562042, 0.09501155465841293, -0.037982918322086334, -0.09259597212076187, -0.09768807888031006, 0.20624534785747528, 0.03486410900950432, -0.24476106464862823, 0.034939199686050415, 0.037658192217350006, -0.2729102373123169, 0.14896506071090698, -0.12329278141260147, -0.2993033230304718, -0.06077835336327553, -0.017837248742580414, -0.05867539718747139, -0.052203062921762466, 0.15923826396465302, -0.014413055032491684, 0.0644797831773758, 0.10379175841808319, -0.16524896025657654, 0.08476362377405167, 0.05123652517795563, 0.26906874775886536, 0.01184777170419693, -0.06647074967622757, -0.013738119043409824, 0.06966988742351532, 0.0978713110089302, -0.24358488619327545, 0.023281192407011986, -0.11129555106163025, -0.18440715968608856, 0.09131288528442383, -0.15244455635547638, 0.16631920635700226, 0.0011545919114723802, 0.1043616384267807, -0.19040623307228088, -0.001006605918519199, -0.07366980612277985, 0.19346550107002258, 0.07706184685230255, 0.14871683716773987, -0.11409430205821991, 0.154449462890625, -0.17924551665782928, -0.0008080066763795912, -0.008003960363566875, -0.04687894880771637, -0.04632795974612236, -0.02875608578324318, -0.02090991847217083, -0.23501908779144287, 0.14979569613933563, 0.012828237377107143, -0.021594272926449776, 0.153412863612175, 0.1093347892165184, -0.12581360340118408, 0.02081204392015934, -0.003000931814312935, -0.10840857028961182, 0.1378728151321411, -0.0640178918838501, 0.12502887845039368, -0.02859317697584629, -0.08139365166425705, -0.025832055136561394, 0.10466548800468445, 0.11363450437784195, -0.20436351001262665, 0.22873327136039734, 0.08754314482212067, 0.15226687490940094, -0.012201857753098011, -0.058831438422203064, 0.1188657283782959, -0.07121440768241882, -0.023300696164369583, 0.11989813297986984, -0.17364799976348877, 0.06431735306978226, -0.11791130900382996, 0.06463279575109482, 0.08548475056886673, 0.1608705371618271, -0.1856352686882019, -0.008393256925046444, 0.007681125774979591, 0.11250980198383331, 0.0750168189406395, 0.05129533261060715, -0.056705351918935776, -0.12935656309127808, -0.16463592648506165, 0.043429285287857056, 0.16481485962867737, 0.04540710523724556, -0.11032164841890335, -0.038932085037231445, 0.224959135055542, 0.020622774958610535, -0.08946622908115387, -0.04289887100458145, -0.23832575976848602, 0.02017621137201786, 0.03831817954778671, -0.22108396887779236, -0.03214850276708603, 0.10085839778184891, -0.20197266340255737, -0.07979574799537659, -0.10792439430952072, -0.3329566717147827, 0.12103776633739471, 0.2891823351383209, 0.012137927114963531, -0.04352352395653725, -0.0846976712346077, 0.14092925190925598, -0.08738598227500916, -0.1046840026974678, 0.14370915293693542, -0.04232580587267876, 0.05750994384288788, -0.0134217394515872, 0.016656603664159775, -0.003013263689354062, 0.0921831727027893, -0.029756950214505196, -0.16231350600719452, -0.07272903621196747, -0.015510301105678082, 0.08515059947967529, -0.11640196293592453, 0.08934681862592697, -0.06131328269839287, -0.023638157173991203, 0.12805962562561035, 0.07685200870037079, 0.08779874444007874, 0.046714965254068375, -0.06825372576713562, -0.08286555856466293, 0.028387658298015594, 0.14462241530418396, -0.058114632964134216, -0.09165860712528229, 0.08710551261901855, 0.13939733803272247, 0.007279383484274149, -0.0885840356349945, -0.1325671374797821, 0.08276394009590149, 0.018844008445739746, -0.07569345086812973, 0.07401491701602936, 0.08283649384975433, 0.10986129194498062, 0.18909384310245514, -0.048340607434511185, -0.06402834504842758, -0.16582965850830078, 0.03653721138834953, 0.03845475986599922, 0.18400384485721588, -0.059665605425834656, 0.013012553565204144, 0.010084157809615135, 0.05778573825955391, -0.004144318401813507, -0.18028724193572998, -0.16597139835357666, 0.2587032616138458, -0.18489959836006165, -0.13393597304821014, 0.19348914921283722, 0.05074526369571686, -0.008622358553111553, -0.1414318084716797, -0.13970069587230682, -0.17791588604450226, 0.25999054312705994, 0.06002160161733627, 0.11763471364974976, 0.002076471224427223, -0.028481315821409225, -0.023267079144716263, 0.27306848764419556, 0.13021640479564667, -0.008077274076640606, 0.0028946201782673597, -0.07732433825731277, -0.1970701515674591, 0.08969536423683167, -0.2155160903930664, 0.06258638948202133, 0.0972735583782196, -0.25619930028915405, -0.07824137806892395, 0.21330474317073822, -0.08536317199468613, -0.02261165715754032, 0.13647805154323578, -0.06993864476680756, -0.10166718065738678, 0.0647788718342781, -0.21795625984668732, -0.13712765276432037, 0.04926825687289238, -0.19606411457061768, 0.05227728560566902, -0.04675187170505524, 0.050768692046403885, -0.2615616023540497, 0.24555224180221558, -0.1283389925956726, 0.2929386496543884, -0.23004861176013947, -0.0770205706357956, 0.2507995665073395, -0.17188842594623566, 0.07005112618207932, 0.06300556659698486, -0.24029667675495148, -0.02204766497015953, -0.14807023108005524, 0.25193607807159424, -0.13184696435928345, 0.21770310401916504, -0.1653510183095932, 0.007785774301737547, -0.06977598369121552, -0.0015014797681942582, -0.0344424732029438, 0.30232685804367065, -0.15667316317558289, 0.15201909840106964, -0.2213989943265915, 0.23266059160232544, -0.17770349979400635, 0.14790937304496765, -0.1385224610567093, -0.013490087352693081, 0.21068961918354034, -0.01890402100980282, -0.06178472936153412, 0.17159362137317657, -0.01065167598426342, -0.07984741777181625, 0.30156853795051575, -0.20829403400421143, -0.05973144993185997, 0.16157835721969604, -0.05431244149804115, -0.0025964092928916216, -0.07035123556852341, -0.14555475115776062, -0.07714364677667618, -0.02309705689549446, 0.046084798872470856, 0.04456087574362755, 0.018827008083462715, 0.10312438011169434, -0.1284172087907791, -0.05853341892361641, 0.1348649114370346, -0.2477201372385025, 0.10826893895864487, 0.05281681939959526, -0.1998838633298874, 0.12920217216014862, -0.09364049881696701, 0.17214903235435486, -0.1689797341823578, -0.046475932002067566, -0.1609809547662735, 0.16445066034793854, -0.0741637572646141, 0.23442472517490387, -0.09356888383626938, -0.09942101687192917, -0.269547700881958, -0.047647710889577866, 0.17678821086883545, 0.10649176687002182, -0.0680382177233696, 0.003715753322467208, -0.04329592362046242, 0.1947556436061859, 0.14733733236789703, -0.24125619232654572, 0.0597115159034729, -0.05699900910258293, -0.22269755601882935, 0.10912427306175232, 0.16694322228431702, -0.25529745221138, 0.16252943873405457, -0.04251231253147125, -0.16822503507137299, 0.19154320657253265, 0.0015239466447383165, 0.0843367651104927, -0.09698063880205154, 0.147338405251503, 0.06083446368575096, -0.1506766825914383, 0.02925805374979973, -0.21137574315071106, -0.11456509679555893, 0.09264934808015823, 0.22812755405902863, -0.03754642978310585, -0.012819512747228146, 0.23811793327331543, 0.09907761961221695, -0.15784823894500732, 0.09827293455600739, -0.03951883316040039, -0.19583852589130402, -0.11052500456571579, 0.10483333468437195, 0.2006172090768814, 0.173881396651268, 0.082636758685112, -0.10572533309459686, -0.004506791941821575, -0.06284429877996445, -0.018332628533244133, 0.13062165677547455, 0.08410035073757172, -0.21371780335903168, 0.023098843172192574, 0.05439169332385063, -0.01599036157131195, 0.0769578143954277, 0.12408986687660217, -0.1921616792678833, 0.0727415606379509, 0.05932727828621864, -0.19875048100948334, 0.19214949011802673, 0.07873159646987915, 0.007857360877096653, 0.01940358802676201, 0.1465957909822464, -0.16754435002803802, 0.25722748041152954, -0.1347397118806839, -0.20757777988910675, 0.18910695612430573, 0.15734320878982544, 0.05296844616532326, -0.043007392436265945, -0.0925084725022316, -0.07213220000267029, -0.12936142086982727, 0.022112589329481125, 0.06141812726855278, -0.032672226428985596, 0.010292223654687405, 0.07782246917486191, 0.09746523201465607, -0.01952805183827877, -0.042669933289289474, -0.04781290143728256, 0.0022034402936697006, -0.03470645099878311, -0.013679101131856441, 0.42131873965263367, -0.29567602276802063, 0.702038049697876, -0.6241548657417297, 0.06173701211810112, 0.8071638345718384, 0.899114727973938, -0.6830914616584778, 0.10633503645658493, 0.059705011546611786, -0.33576396107673645, -0.3492601811885834, 0.153387650847435, -0.5898314714431763, 0.13542230427265167, 0.5132284760475159, -0.09744908660650253, 0.17838026583194733, 0.015940092504024506, 0.10134636610746384, 0.23190318048000336, 0.0113730663433671, 0.1452217847108841, -0.11291012167930603, -0.016426334157586098, -0.014190935529768467, 0.07616765797138214, -0.1483215093612671, -0.008129258640110493, -0.03226884827017784, 0.019384287297725677, 0.3575631082057953, 0.023923235014081, -0.06134061515331268, -0.2835644483566284, 0.06577640771865845, 0.05825427174568176, -0.1284240335226059, -0.14698880910873413, 0.23758547008037567, -0.049555420875549316, 0.13187238574028015, -0.016156617552042007, 0.122654989361763, 0.023272117599844933, -0.061166584491729736, 0.1466466635465622, 0.09267958253622055, 0.056027352809906006, 0.13010482490062714, -0.19381412863731384, 0.28428322076797485, 0.14304979145526886, -0.24058136343955994, -0.11901167035102844, -0.23648998141288757, -0.11911620199680328, -0.2970360219478607, 0.10691991448402405, -0.036474112421274185, -0.022706905379891396, 0.31709760427474976, -0.05106452479958534, 0.04272564500570297, 0.13392798602581024, -0.1674387902021408, 0.024528630077838898, -0.22717322409152985, -0.13463249802589417, 0.18693029880523682, 0.10871615260839462, 0.0064270165748894215, -0.1367121785879135, 0.1680629849433899, -0.09196006506681442, -0.0856306329369545, 0.13785649836063385, 0.15232983231544495, -0.11461509019136429, 0.051317498087882996, -0.2116093635559082, -0.3992142081260681, -0.1273469477891922, 0.038462113589048386, 0.11443095654249191, 0.22143377363681793, 0.1960914134979248, -0.048658356070518494, 0.2270873337984085, 0.37246567010879517, -0.2905661463737488, 0.136524960398674, 0.028897805139422417, -0.0985364243388176, -0.1823241263628006, -0.002532616490498185, -0.15434810519218445, 0.014946537092328072, 0.08048664033412933, 0.08400743454694748, 0.2538774013519287, 0.1973620504140854, 0.21424758434295654, 0.07226414978504181, 0.14659862220287323, -0.06821464747190475, -0.14169560372829437, -0.04079527407884598, 0.029982902109622955, -0.10755843669176102, 0.09652987122535706, 0.006459911819547415, 0.05898819863796234, 0.22602926194667816, 0.20797891914844513, 0.12197767943143845, -0.3414486348628998, -0.28428247570991516, 0.10696076601743698, 0.5432131290435791, 0.05401628836989403, -0.28295108675956726, -0.16400869190692902, 0.23801307380199432, 0.20872454345226288, -0.17725452780723572, 0.35883817076683044, -0.439695805311203, 0.25529342889785767, 0.07279565185308456, 0.33752351999282837, -0.2483755648136139, -0.305547297000885, 0.15450365841388702, 0.3090992867946625, 0.1492379903793335, 0.1702568531036377, -0.19422942399978638, 0.09959524869918823, -0.23001696169376373, 0.17424695193767548, -0.20760469138622284, -0.0355241633951664, 0.04115123301744461, -0.138985276222229, 0.03915853798389435, -0.34221094846725464, -0.1356753706932068, 0.18741798400878906, -0.13214951753616333, -0.24617336690425873, -0.11295203119516373, -0.2924920618534088, -0.2510134279727936, 0.15786254405975342, 0.14726658165454865, -0.08812354505062103, -0.01933482103049755, -0.0008143357699736953, 0.04800504818558693, -0.18958136439323425, -0.026059964671730995, 0.30938971042633057, -0.3075261116027832, -0.33514291048049927, 0.07591906934976578, 0.2835599184036255, -0.08458893746137619, 0.13218900561332703, 0.27195945382118225, -0.027373118326067924, 0.0429716482758522, 0.3090272843837738, 0.044790782034397125, -0.05179984122514725, 0.029364367946982384, 0.14319385588169098, 0.27617448568344116, -0.25469741225242615, 0.16389606893062592, -0.031727321445941925, -0.18764334917068481, 0.04358060285449028, -0.10804234445095062, -0.011814177967607975, -0.1728135496377945, 0.029049638658761978, -0.04296975955367088, -0.14858292043209076, 0.266913503408432, 0.045594267547130585, 0.26624658703804016, 0.027289409190416336, -0.056689199060201645, 0.11483001708984375, -0.024116775020956993, 0.0585968941450119, -0.06572764366865158, -0.052933067083358765, 0.0355033203959465, -0.018966352567076683, -0.16930098831653595, 0.12274631857872009, -0.17130571603775024, -0.11192797124385834, 0.16960780322551727, -0.14809654653072357, -0.1636676788330078, -0.05745040252804756, -0.00586481811478734, 0.026014814153313637, 0.06274020671844482, 0.06432408839464188, -0.18601171672344208, -0.036888238042593, 0.25249066948890686, 0.19581831991672516, -0.036370713263750076, -0.11340857297182083, 0.060049813240766525, 0.14855201542377472, -0.12685656547546387, -0.03403018042445183, 0.01973298378288746, -0.047047555446624756, -0.22673533856868744, -0.13054504990577698, 0.11057286709547043, -0.1342972218990326, 0.208442822098732, 0.21139304339885712, 0.07741186022758484, 0.004792410414665937, -0.06010457128286362, -0.03539669141173363, -0.026506179943680763, -0.208210751414299, -0.10335548222064972, -0.25693801045417786, 0.20731563866138458, -0.07229894399642944, 0.2673642337322235, -0.10474015027284622, -0.1283741593360901, 0.09489886462688446, -0.00786733441054821, 0.12714502215385437, 0.2774253487586975, -0.26454490423202515, 0.09026555716991425, -0.0044639925472438335, -0.03656044602394104, 0.15366952121257782, 0.18916596472263336, -0.08086562156677246, -0.13800783455371857, 0.1923430860042572, 0.23102299869060516, 0.09045809507369995, -0.10340611636638641, -0.09275390952825546, 0.09668605774641037, -0.01854451186954975, 0.45897457003593445, -0.14482511579990387, -0.20237596333026886, 0.031803518533706665, -0.15327224135398865, 0.03890661150217056, 0.2728881537914276, 0.21332311630249023, -0.23381407558918, 0.12432008236646652, -0.10104382783174515, 0.18469534814357758, -0.16387049853801727, -0.0939924567937851, -0.019953208044171333, 0.13597366213798523, 0.015508602373301983, 0.019781585782766342, -0.15449713170528412, 0.06297862529754639, 0.0025727427564561367, 0.03847203776240349, 0.12283211946487427, 0.06426460295915604, 0.03795674443244934, 0.01951480284333229, -0.2120596170425415, 0.05922820791602135, 0.12393833696842194, 0.005693984683603048, 0.12863551080226898, 0.015138115733861923, -0.23529860377311707, 0.10632069408893585, -0.16339635848999023, 0.019483577460050583, -0.07348337024450302, 0.010947572067379951, 0.11000505089759827, -0.3361984193325043, 0.10613490641117096, 0.1133774071931839, 0.04304070770740509, -0.6555166244506836, 0.3011838495731354, -0.12003978341817856, -0.07877286523580551, 0.12664681673049927, -0.182455912232399, 0.05477649345993996, -0.17141330242156982, -0.03609625995159149, -0.18624085187911987, 0.1482275277376175, -0.1630363017320633, 0.016552839428186417, -0.28885018825531006, 0.07315657287836075, -0.02210208959877491, -0.22890686988830566, 0.022896884009242058, -0.2536775767803192, -0.002536291489377618, -0.13957682251930237, -0.10136774927377701, 0.016808167099952698, -0.20048855245113373, -0.22357724606990814, 0.01588303968310356, 0.059447068721055984, -0.2091657966375351, 0.12009954452514648, -0.10116612911224365, -0.04197036847472191, 0.032186031341552734, 0.15056473016738892, -0.13209259510040283, -0.035433895885944366, 0.029188483953475952, -0.1264975666999817, -0.07118777185678482, 0.17300692200660706, -0.12519758939743042, 0.021331006661057472, -0.11542726308107376, 0.17012140154838562, -0.010998057201504707, -0.08100665360689163, -0.09596944600343704, -0.1479988843202591, -0.15871593356132507, 0.28101247549057007, -0.13050058484077454, 0.001113164471462369, 0.19855765998363495, -0.03445242717862129, -0.05490073561668396, -0.16066858172416687, 0.02810879610478878, 0.1068272516131401, 0.1340305507183075, 0.02049325220286846, -0.21671487390995026, -0.05535263940691948, 0.044828981161117554, 0.12772782146930695, -0.18561746180057526, -0.09291236847639084, 0.11563204973936081, -0.05309787392616272, -0.08499302715063095, 0.05249500647187233, 0.0109940767288208, 0.09026829898357391, 0.045119982212781906, -0.04768197983503342, -0.1667405515909195, -0.0054036458022892475, 0.0512181892991066, 0.009469610638916492, -0.21462732553482056, 0.025843065232038498, -0.13477326929569244, -0.009171204641461372, 0.15682214498519897, 0.2104998230934143, -0.10341937094926834, 0.03163933753967285, 0.10124565660953522, 0.06336698681116104, 0.10038294643163681, -0.010756099596619606, -0.0911874771118164, -0.03384692221879959, -0.06990007311105728, 0.16517837345600128, -0.07802735269069672, 0.043188679963350296, 0.13890419900417328, 0.20575952529907227, -0.12376538664102554, -0.0975804328918457, -0.07751098275184631, -0.10484880954027176, 0.13984304666519165, 0.009671886451542377, -0.08222881704568863, -0.05823773518204689, -0.07196652889251709, 0.07895343005657196, -0.07872934639453888, -0.07731130719184875, -0.09316341578960419, 0.06667084991931915, 0.11365440487861633, 0.0035573155619204044, 0.09606757014989853, 0.06385767459869385, -0.048340026289224625, -0.05142779275774956, -0.05871910601854324, -0.06063207983970642, 0.07067245990037918, -0.04905872419476509, 0.10741253942251205, 0.009009563364088535, 0.0014090631157159805, 0.14758414030075073, 0.1243707463145256, -0.03401823714375496, -0.05798827484250069, -0.03379097953438759, -0.11792709678411484, 0.04407966881990433, 0.041362617164850235, 0.1432880312204361, -0.09547585994005203, -0.2322908192873001, 0.11302053183317184, 0.09879302233457565, -0.08000628650188446, -0.11410977691411972, -0.1685616672039032, 0.21639439463615417, -0.146428644657135, 0.06925136595964432, 0.061657682061195374, 0.12142845243215561, 0.04304853081703186, 0.03420330956578255, -0.23552224040031433, -0.003435615450143814, 0.10930211842060089, 0.1546620875597, -0.13180877268314362, -0.04706982150673866, 0.06438904255628586, -0.151405468583107, 0.11073832958936691, 0.216905415058136, -0.05389708653092384, -0.06462228298187256, 0.15519283711910248, 0.10497108846902847, 0.12319903075695038, 0.1769479513168335, 0.14460328221321106, -0.07885314524173737, 0.12527284026145935, -0.1601136475801468, -0.11335618793964386, 0.0014308771351352334, -0.026012778282165527, 0.04566194489598274, 0.07494193315505981, 0.09545909613370895, 0.17859487235546112, -0.0473468117415905, 0.018447013571858406, -0.009659996256232262, 0.07932181656360626, 0.18820297718048096, -0.024236036464571953, -0.05883435904979706, 0.1621132791042328, -0.08705318719148636, -0.1153300404548645, 0.01595502719283104, 0.06831628829240799, -0.02809334173798561, -0.1646818071603775, -0.1849156618118286, -0.1209760531783104, 0.015561244450509548, -0.030696148052811623, 0.22483181953430176, -0.21633361279964447, 0.09477280080318451, 0.021888012066483498, 0.03985556587576866, 0.19201233983039856, 0.07674550265073776, 0.12364702671766281, -0.11286606639623642, -0.05887768790125847, -0.1449594646692276, 0.06419148296117783, 0.14117377996444702, 0.06830105930566788, -0.05307817459106445, -0.12097650021314621, 0.10709413141012192, 0.04992122948169708, -0.19521118700504303, -0.32468128204345703, 0.055322371423244476, 0.00448203831911087, -0.07264800369739532, -0.027018362656235695, -0.0040181102231144905, -0.1020965427160263, -0.14576545357704163, 0.1822557896375656, -0.03813159838318825, 0.041859906166791916, -0.04552425071597099, -0.15286198258399963, -0.01758175529539585, -0.11153332889080048, 0.06388462334871292, 0.0714237317442894, -0.06059284135699272, -0.2584805190563202, 0.0035449995193630457, 0.00872408039867878, 0.15238268673419952, 0.11012452840805054, -0.09506118297576904, 0.17305544018745422, 0.11667591333389282, 0.09133972227573395, 0.09012757241725922, -0.008803470991551876, -0.06580699235200882, -0.17722028493881226, -0.2518577575683594, 0.07298580557107925, 0.03403278440237045, 0.10869336873292923, 0.1608746498823166, -0.06080930680036545, -0.0284412931650877, 0.09460121393203735, 0.046278588473796844, -0.034442704170942307, 0.11560840904712677, -0.15862807631492615, 0.08627542853355408, 0.21156392991542816, -0.11640335619449615, 0.11536034196615219, 0.051771264523267746, 0.17390663921833038, 0.017541171982884407, -0.05726930499076843, -0.10224679857492447, 0.12173348665237427, -0.10355137288570404, -0.010636982508003712, -0.22299185395240784, -0.1411007195711136, 0.01838032528758049, -0.10604079067707062, 0.09193076938390732, 0.12872523069381714, -0.02712450549006462, 0.061901189386844635, 0.17482390999794006, -0.13076482713222504, -0.03757113590836525, 0.07146477699279785, 0.17025335133075714, 0.05888020992279053, -0.05878520384430885, -0.05496235191822052, -0.3572184145450592, -0.026692772284150124, 0.048070427030324936, 0.163642019033432, -0.02207900397479534, 0.10072153806686401, 0.27925196290016174, 0.03715779259800911, 0.22738049924373627, 0.07343437522649765, 0.054598912596702576, 0.006147393956780434, -0.003176867961883545, 0.042603153735399246, -0.07540512084960938, 0.06617669761180878, -0.04360473155975342, -0.009411709383130074, 0.04450998455286026, 0.05583203583955765, 0.05615730583667755, -0.12275124341249466, 0.07260768860578537, -0.021470073610544205, -0.04176079481840134, 0.06889034807682037, 0.2153877466917038, -0.08040167391300201, 0.06771019101142883, -0.09853178262710571, -0.10414158552885056, 0.062311578541994095, -0.0031408590730279684, 0.1075468435883522, 0.005199225153774023, -0.057578086853027344, -0.20022234320640564, 0.01460769958794117, 0.11611053347587585, 0.11779383569955826, -0.004413475748151541, -0.10422485321760178, -0.19927169382572174, -0.030280493199825287, 0.10399070382118225, -0.09702566266059875, -0.12459302693605423, -0.1408866047859192, 0.03245146572589874, -0.10439403355121613, -0.3016437888145447, 0.17460371553897858, -0.10634446889162064, -0.08190164715051651, -0.03860103338956833, 0.0005090330960229039, -0.08240016549825668, 0.08081331849098206, -0.066207654774189, -0.030433423817157745, -0.028772583231329918, -0.10206060856580734, 0.18541723489761353, 0.16378436982631683, 0.09668226540088654, -0.06806589663028717, 0.04756047949194908, -0.08054625242948532, 0.051011763513088226, -0.06002753973007202, -0.0693841502070427, 0.04645067825913429, -0.08989820629358292, -0.026600420475006104, -0.04378438740968704, -0.15510526299476624, -0.025926239788532257, -0.1404702514410019, 0.013439317233860493, 0.017717473208904266, 0.08259173482656479, -0.06203140318393707, -0.03889308124780655, -0.06184223294258118, 0.22105161845684052, 0.15277057886123657, -0.06652719527482986, -0.1805337816476822, -0.15321411192417145, -0.10750826448202133, 0.26115354895591736, 0.12823688983917236, 0.11688767373561859, 0.12714916467666626, -0.008150391280651093, -0.10758016258478165, 0.12425407022237778, 0.13659663498401642, -0.01322918850928545, -0.1374528408050537, 0.11695647984743118, 0.11336535960435867, 0.18925237655639648, -0.0846414789557457, 0.14941035211086273, -0.19003023207187653, -0.09170639514923096, 0.1836606115102768, 0.05589756742119789, -0.08938121050596237, 0.04992206022143364, -0.09170281141996384, 0.057878926396369934, -0.09347665309906006, 0.09343097358942032, -0.06401824206113815, -0.17818592488765717, 0.03778453543782234, -0.011601080186665058, 0.053488824516534805, 0.07475023716688156, 0.11150916665792465, -0.012851426377892494, 0.03984488919377327, -0.04636457934975624, -0.15816092491149902, 0.08754044771194458, -0.07119174301624298, -0.025741009041666985, -0.0021057729609310627, -0.055643271654844284, 0.0171342920511961, 0.03365466371178627, 0.10825447738170624, 0.023303022608160973, -0.07761529833078384, 0.010159112513065338, 0.1233644187450409, -0.2049231380224228, -0.14702627062797546, 0.03742232173681259, -0.04286886006593704, 0.1294696182012558, -0.02169073186814785, 0.43902987241744995, 0.1542332023382187, -0.07848517596721649, -0.01102195680141449, 0.04375111684203148, -0.040743906050920486, -0.1531463861465454, -0.1267687827348709, 0.10331718623638153, -0.06046978011727333, 0.14159174263477325, 0.0533929169178009, -0.053774699568748474, 0.04334905743598938, 0.10454246401786804, -0.07330603897571564, -0.0108859958127141, -0.0023531948681920767, -0.17471325397491455, -0.10001260787248611, 0.22183926403522491, -0.014197307638823986, -0.13120999932289124, 0.014685077592730522, -0.046701472252607346, -0.0773409977555275, -0.049532998353242874, -0.06733760237693787, 0.06600960344076157, 0.057416342198848724, -0.15455859899520874, -0.26586756110191345, 0.13086554408073425, -0.1847679167985916, -0.07376927882432938, -0.14784716069698334, -0.04510024935007095, 0.027776770293712616, -0.10860593616962433, -0.14830301702022552, 0.032445549964904785, -0.12881626188755035, 0.01702195405960083, -0.13649111986160278, 0.11349781602621078, -0.2145678848028183, -0.029198624193668365, 0.008743991144001484, -0.167514368891716, -0.01978708989918232, -0.17579729855060577, 0.0963142067193985, 0.14639055728912354, -0.048259586095809937, -0.39362069964408875, 0.32397082448005676, 0.13528095185756683, -0.03504597023129463, 0.19775885343551636, 0.019616762176156044, 0.025337494909763336, -0.1291089653968811, 0.18951992690563202, -0.095303475856781, -0.10194024443626404, -0.09988247603178024, 0.10935448855161667, -0.19197367131710052, -0.0322374552488327, 0.09636017680168152, -0.08181114494800568, -0.07023102045059204, -0.06521221250295639, 0.12632273137569427, 0.10973545163869858, 0.05841519311070442, -0.04293232783675194, 0.08393445611000061, -0.01990489289164543, 0.09662704914808273, 0.077661894261837, -0.23755861818790436, -0.04204607754945755, -0.05336959287524223, 0.09235340356826782, -0.022817367687821388, -0.04101633280515671, -0.008263940922915936, 0.0036246476229280233, -0.10995986312627792, -0.024665668606758118, -0.0007380557362921536, 0.1606777310371399, 0.03544680401682854, 0.05333225056529045, -0.03862887993454933, 0.07703108340501785, 0.20073498785495758, -0.29720526933670044, -0.05580902099609375, 0.25808557868003845, -0.012127028778195381, -0.2439795285463333, -0.09965580701828003, 0.013577448204159737, 0.04035145044326782, 0.23900917172431946, 0.024227630347013474, 0.1858246773481369, -0.26308876276016235, -0.041814208030700684, -0.16756905615329742, 0.21063366532325745, -0.023822715505957603, 0.014111814089119434, -0.12073610723018646, 0.003768735332414508, -0.008875488303601742, -0.027393514290452003, 0.025980114936828613, -0.12274892628192902, -0.15858736634254456, -0.04209592938423157, 0.1230657771229744, 0.019233670085668564, -0.1468735635280609, 0.072464220225811, -0.09234728664159775, -0.10487022995948792, -0.2523801624774933, -0.027407538145780563, 0.09856270998716354, -0.04845651239156723, 0.11922607570886612, -0.14072103798389435, 0.07405541837215424, 0.013417767360806465, -0.02524859830737114, 0.13537432253360748, 0.11561649292707443, -0.12148171663284302, 0.039154455065727234, 0.04657258093357086, 0.0019434811547398567, 0.23238535225391388, -0.05364416539669037, 0.005284559912979603, -0.09988966584205627, -0.12603101134300232, 0.2154267281293869, 0.017865538597106934, -0.2526818513870239, 0.10856276005506516, -0.14963573217391968, -0.10497713834047318, 0.13547684252262115, -0.07754688709974289, 0.07395516335964203, -0.010839683003723621, -0.05681845173239708, 0.015349788591265678, -0.05497783049941063, 0.13078206777572632, 0.13377238810062408, -0.08659517019987106, 0.13160386681556702, -0.14629040658473969, -0.06686215102672577, 0.1303286999464035, -0.11707659065723419, 0.05653467774391174, 0.02027737908065319, -0.00922598410397768, -0.091152124106884, 0.14656344056129456, -0.07351680099964142, -0.01753985323011875, 0.07321909070014954, 0.06169117987155914, 0.1684681624174118, -0.08276264369487762, -0.13748395442962646, 0.1332474797964096, 0.018214058130979538, 0.08362585306167603, 0.07077529281377792, 0.0056566717103123665, -0.31315115094184875, 0.19546476006507874, -0.0863509476184845, 0.024416619911789894, 0.042164966464042664, -0.06639856100082397, 0.010777379386126995, 0.004648874048143625, 0.03604918345808983, 0.1627892255783081, -0.2948951721191406, -0.20535419881343842, 0.4883006811141968, 0.1472986340522766, 0.1992167979478836, 0.20093190670013428, -0.18775904178619385, -0.050759825855493546, -0.2321096956729889, 0.28953197598457336, 0.10485374182462692, -0.003509875852614641, 0.010407212190330029, -0.11014311760663986, -0.18035894632339478, 0.17265312373638153, -0.05177069082856178, -0.08501310646533966, 0.034438326954841614, -0.23880882561206818, 0.05879761278629303, 0.13694211840629578, 0.07151294499635696, 0.08402081578969955, -0.057706527411937714, -0.1824677586555481, -0.10405653715133667, 0.0018786785658448935, -0.1693008542060852, 0.0886382907629013, -0.021979035809636116, -0.1366390585899353, 0.09501918405294418, -0.20053771138191223, 0.054628532379865646, 0.19022035598754883, -0.04767557978630066, -0.21802322566509247, 0.29984816908836365, -0.005661885254085064, -0.06476088613271713, -0.10934687405824661, 0.0008745898376218975, -0.276576966047287, -0.05464218556880951, 0.30541834235191345, 0.19632858037948608, -0.2556533217430115, -0.02053014747798443, 0.4613132178783417, -0.08837825059890747, 0.15908032655715942, 0.21012336015701294, -0.14638261497020721, -0.0439065620303154, -0.08822185546159744, 0.13123969733715057, -0.061708636581897736, 0.006729999091476202, -0.24470984935760498, 0.15232068300247192, -0.15618857741355896, 0.32903727889060974, 0.054255805909633636, -0.08892369270324707, 0.14404526352882385, -0.06634266674518585, -0.03393986076116562, -0.05191991478204727, 0.06920313835144043, -0.17690280079841614, -0.0655008926987648, -0.004733297973871231, -0.14890798926353455, 0.03230700641870499, -0.18910855054855347, 0.5536066293716431, -0.132040873169899, -0.036477502435445786, -0.10600577294826508, 0.12375057488679886, 0.01407522801309824, -0.01636810228228569, -0.11456288397312164, 0.08619949221611023, -0.18077154457569122, -0.13559173047542572, 0.3975487947463989, -0.011939451098442078, 0.10003988444805145, -0.07250400632619858, -0.0740765854716301, 0.04040459543466568, -0.09247378259897232, 0.11224294453859329, 0.012704035267233849, -0.34095144271850586, 0.1556670218706131, 0.39560213685035706, 0.0001328625512542203, 0.267173171043396, 0.053523171693086624, -0.4770013988018036, -0.2915070056915283, -0.25454482436180115, 0.308829128742218, 0.02313186228275299, 0.24982419610023499, -0.11831019073724747, -0.20016279816627502, -0.13410066068172455, 0.21288654208183289, -0.2424435019493103, -0.22393415868282318, 0.1729302704334259, -0.22904303669929504, 0.05338020250201225, 0.4530726969242096, -0.017176222056150436, 0.15678665041923523, 0.04894008859992027, -0.14308232069015503, -0.09526030719280243, 0.4798978865146637, 0.1327667385339737, 0.3581376373767853, 0.13640683889389038, 0.10358811914920807, 0.09569626301527023, 0.00805811770260334, 0.08711688220500946, -0.0707574412226677, 0.05410773307085037, 0.1703241467475891, 0.1626167744398117, -0.05044475570321083, -0.0724702700972557, 0.07491116225719452, 0.07637035101652145, 0.07758915424346924, 0.03841036558151245, 0.08839509636163712, -0.005529386457055807, -0.25444433093070984, 0.2568128705024719, 0.2997620403766632, -0.5895034670829773, 0.19972999393939972, -0.718963623046875, -0.29933953285217285, -0.3450380563735962, 0.915505051612854, -0.95163893699646, -0.5989022254943848, -0.8596258163452148, 0.23669324815273285, -0.9624568819999695, 0.35403260588645935, -1.1606833934783936, -0.014857910573482513, -0.12898072600364685, 0.20054683089256287, 0.2528160512447357, 0.2521950602531433, -0.1439879834651947, -0.16284342110157013, -0.11941048502922058, -0.010789270512759686, -0.19816254079341888, 0.056478388607501984, 0.07693129032850266, 0.19455868005752563, 0.017713870853185654, -0.1370934098958969, 0.08094068616628647, 0.0006612227880395949, -0.05645976960659027, 0.023248201236128807, -0.08296486735343933, -0.11952962726354599, 0.0538916140794754, 0.003786248154938221, -0.13797132670879364, 0.0813036561012268, -0.20415422320365906, 0.09816209971904755, 0.18768297135829926, -0.03136035427451134, 0.009545850567519665, 0.2169288694858551, 0.12496042251586914, -0.22965550422668457, -0.0682695284485817, -0.005105012562125921, 0.17123310267925262, 0.003831304609775543, 0.1868687868118286, -0.06761602312326431, 0.04094444960355759, -0.26571688055992126, 0.10626581311225891, -0.1824042946100235, -0.3283803462982178, -0.04192269966006279, 0.3039022982120514, 0.1462041139602661, 0.20419584214687347, 0.1478527933359146, 0.06354730576276779, -0.0295100174844265, -0.2815307080745697, -0.07935874164104462, -0.04224071651697159, -0.014203143306076527, -0.03310345113277435, 0.05158403888344765, -0.016969729214906693, 0.006082388572394848, 0.34079521894454956, 0.17020629346370697, -0.33654144406318665, 0.19806838035583496, -0.17702192068099976, 0.2093878835439682, 0.11459685862064362, -0.055986400693655014, -0.26405641436576843, 0.15626180171966553, -0.1597498506307602, 0.04315069317817688, 0.23526009917259216, 0.3954234719276428, -0.08993705362081528, -0.13821563124656677, 0.059687692672014236, -0.02030135504901409, -0.22749517858028412, -0.06325527280569077, -0.24099427461624146, -0.13222260773181915, 0.0293823704123497, -0.27635252475738525, -0.1771761029958725, -0.02774566225707531, -0.12311330437660217, -0.0038025809917598963, 0.02701430767774582, -0.08618202060461044, 0.2447279989719391, -0.03706245496869087, -0.19177764654159546, -0.26663002371788025, -0.05214132368564606, 0.09875427931547165, 0.11658930033445358, 0.19232864677906036, -0.21336838603019714, 0.08679082989692688, -0.09354899823665619, -0.004098421894013882, 0.2639441192150116, -0.3812059164047241, -0.2564026713371277, 0.219636932015419, 0.06971263885498047, -0.09132635593414307, 0.20009811222553253, 0.14493805170059204, 0.060738641768693924, -0.42722755670547485, 0.2951884865760803, 0.07097137719392776, 0.06562324613332748, -0.1164892241358757, 0.08388465642929077, 0.04686615616083145, -0.02565598674118519, -0.09004674106836319, 0.10157022625207901, -0.1856323927640915, 0.32606756687164307, -0.21238212287425995, -0.021682564169168472, -0.16870532929897308, 0.15007983148097992, 0.08577243238687515, 0.15193337202072144, 0.11396995186805725, 0.0539088174700737, -0.11074644327163696, -0.01582726463675499, -0.1901313066482544, -0.11666180193424225, 0.01798909530043602, -0.11733311414718628, -0.05350637808442116, 0.05884213745594025, 0.29074224829673767, 0.12762342393398285, -0.13529813289642334, 0.27330154180526733, -0.2079308182001114, 0.2569129467010498, -0.09824050217866898, 0.056637559086084366, -0.04044252634048462, 0.03982553631067276, 0.12396031618118286, -0.20100492238998413, 0.2303909808397293, 0.01660790666937828, -0.000988552812486887, -0.03598441556096077, 0.1454649716615677, 0.218174546957016, 0.1234114021062851, -0.11964573711156845, 0.14704246819019318, -0.24893976747989655, 0.022661685943603516, -0.16257253289222717, -0.03566630184650421, 0.15241901576519012, 0.06539749354124069, -0.09801521897315979, -0.046177446842193604, 0.028439614921808243, 0.1413733810186386, 0.24755991995334625, -0.14605680108070374, 0.34911102056503296, 0.03281719237565994, 0.14200538396835327, -0.12364295870065689, 0.06779734045267105, 0.09523478895425797, 0.26974135637283325, -0.13619866967201233, -0.15558944642543793, -0.22643540799617767, 0.01590581238269806, 0.10664214193820953, 0.2312745302915573, -0.3215060532093048, 0.1481459140777588, 0.22542165219783783, -0.02722569741308689, -0.040629301220178604, 0.03965386748313904, 0.042190875858068466, -0.0471678152680397, -0.2619432806968689, -0.2886711657047272, -0.16587214171886444, 0.22937937080860138, 0.10016077756881714, -0.029757173731923103, -0.17617739737033844, 0.056282833218574524, 0.021511413156986237, -0.1025191992521286, -0.22246041893959045, -0.22393746674060822, 0.4037798047065735, -0.2885134518146515, 0.06768203526735306, -0.0420093908905983, 0.04562117159366608, -0.05065014958381653, -0.12430419027805328, 0.3256300687789917, -0.15425319969654083, -0.0297420471906662, -0.04700131714344025, -0.17444230616092682, 0.4514144957065582, 0.15387912094593048, 0.05932680144906044, -0.0239194817841053, 0.3476758897304535, 0.007888284511864185, -0.012283709831535816, -0.11658331751823425, -0.10466071963310242, 0.33242371678352356, 0.03347368538379669, -0.21785716712474823, -0.20072658360004425, 0.0019247480668127537, 0.18252398073673248, 0.13918033242225647, -0.41710489988327026, 0.23328469693660736, -0.1666131168603897, -0.0017252268735319376, -0.28051891922950745, 0.348157674074173, 0.23088280856609344, 0.31485503911972046, 0.3514077663421631, -0.15099762380123138, -0.15677005052566528, -0.03227483853697777, -0.40968066453933716, 0.15728449821472168, -0.14237724244594574, 0.2476184368133545, -0.13656146824359894, -0.05367649346590042, 0.2869497537612915, 0.19489815831184387, -0.37216007709503174, 0.45675957202911377, -0.3407139182090759, -0.09601444751024246, -0.06798706948757172, 0.012542132288217545, -0.0329732745885849, -0.024405214935541153, -0.08470951020717621, 0.012469161301851273, 0.11491971462965012, 0.1588287055492401, 0.07695944607257843, 0.05453028902411461, 0.028763877227902412, -0.1773676574230194, 0.04494890570640564, -0.255203515291214, -0.12435752153396606, -0.04739375784993172, 0.05168481916189194, -0.07570526748895645, -0.11948862671852112, 0.11352726817131042, -0.055393438786268234, -0.08311883360147476, 0.03395404666662216, -0.02590964548289776, -0.006013307720422745, 0.07990157604217529, -0.155470073223114, -0.029916511848568916, 0.08514798432588577, 0.0012305829441174865, -0.036599162966012955, 0.19815650582313538, 0.14962269365787506, -0.08817436546087265, 0.0031878273002803326, 0.07964469492435455, 0.14915861189365387, 0.09340119361877441, 0.14576011896133423, -0.15417729318141937, -0.11967580020427704, 0.10031066834926605, 0.012953565455973148, 0.08988872915506363, 0.04272036999464035, -0.05403846502304077, -0.10684613138437271, 0.035484421998262405, -0.0260354895144701, -0.05432940647006035, -0.0232407096773386, -0.0038380292244255543, -0.03068169392645359, -0.10677482932806015, 0.09237578511238098, -0.13792851567268372, 0.16384921967983246, 0.008585315197706223, 0.26758602261543274, 0.06931556016206741, -0.16733865439891815, 0.07647163420915604, 0.09231225401163101, -0.033451128751039505, 0.10102303326129913, -0.013037104159593582, 0.10743997246026993, -0.22323158383369446, 0.06543376296758652, -0.0842403993010521, 0.06284549832344055, 0.1338331550359726, 0.04764341190457344, -0.006965627893805504, -0.020782018080353737, -0.08975795656442642, 0.2507995069026947, -0.05457277595996857, 0.001777289086021483, -0.1354726403951645, 0.06162337586283684, 0.008045506663620472, 0.05343417450785637, -0.40373602509498596, 0.048636049032211304, -0.16034376621246338, -0.10096733272075653, 0.061685822904109955, 0.04387080296874046, -0.008249898441135883, -0.19299958646297455, 0.09073308110237122, 0.13347972929477692, 0.15635733306407928, 0.22553887963294983, 0.03281044960021973, -0.07647085189819336, -0.15399491786956787, 0.027728596702218056, -0.055214159190654755, -0.024701891466975212, 0.038263458758592606, -0.17482297122478485, 0.07054915279150009, -0.09974994510412216, -0.2744409739971161, -0.2824273407459259, 0.13023976981639862, 0.04475785791873932, 0.10764163732528687, -0.2658421993255615, 0.0885101705789566, 0.16285249590873718, -0.08355134725570679, -0.1784673035144806, 0.08583375811576843, 0.030221646651625633, -0.17638084292411804, 0.05177323892712593, 0.0011050691828131676, 0.09083878248929977, -0.1098376139998436, -0.02165122516453266, 0.10691068321466446, -0.02108515053987503, -0.1322488635778427, 0.07352965325117111, 0.09775862097740173, 0.07817956060171127, 0.040806449949741364, 0.09119682759046555, 0.22106482088565826, 0.02546665631234646, -0.06065801531076431, 0.15334782004356384, 0.05565968155860901, 0.01840384118258953, 0.01328273769468069, -0.005464244168251753, 0.030293786898255348, 0.023866869509220123, -0.14383308589458466, -0.09179173409938812, 0.08422282338142395, -0.02581385336816311, -0.15184225142002106, 0.09583251178264618, 0.09229356050491333, 0.11097791790962219, -0.08739021420478821, 0.06307990103960037, -0.026069294661283493, -0.05150255560874939, 0.02464553713798523, -0.14144085347652435, -0.05428013578057289, -0.055683523416519165, -0.20519493520259857, 0.42224085330963135, 0.21667395532131195, -0.013732833787798882, -0.08956672996282578, 0.007796699181199074, -0.07556696236133575, 0.10868508368730545, -0.07225129008293152, 0.16491881012916565, 0.22205419838428497, -0.28433364629745483, 0.0911974087357521, 0.03037945181131363, -0.17030464112758636, 0.009161856025457382, -0.12369593977928162, -0.010099443607032299, -0.08530762791633606, -0.09824112057685852, 0.3152182698249817, 0.15074096620082855, 0.250975102186203, -0.14948679506778717, -0.11950948089361191, -0.0029220657888799906, 0.2691054046154022, 0.09884652495384216, 0.12516649067401886, -0.09768745303153992, -0.18794022500514984, -0.15251682698726654, 0.022261343896389008, 0.1300843507051468, 0.12183898687362671, -0.1725057065486908, 0.12700623273849487, 0.07830312103033066, -0.17817796766757965, 0.1488541066646576, -0.03134128078818321, -0.14324970543384552, 0.2316393256187439, -0.02689727209508419, -0.09449342638254166, -0.09975574165582657, 0.09329783916473389, 0.011076441965997219, -0.2721036672592163, 0.19566763937473297, 0.08110970258712769, -0.03273921087384224, -0.10590313374996185, 0.1335882544517517, -0.04637129604816437, 0.06702614575624466, 0.1748581826686859, -0.034927304834127426, 0.01262800395488739, 0.030180327594280243, 0.062140725553035736, 0.21170032024383545, -0.02514234185218811, -0.05900204926729202, 0.1960970014333725, -0.05112091824412346, 0.001654555439017713, 0.14871782064437866, -0.1429767906665802, -0.18828557431697845, -0.4583894908428192, 0.20758435130119324, 0.005089097190648317, -0.0932362973690033, -0.054991062730550766, -0.03014918975532055, -0.21227267384529114, 0.18924100697040558, 0.1368168741464615, 0.16965390741825104, -0.02104904130101204, -0.15005964040756226, -0.11578473448753357, 0.15449225902557373, 0.09285522252321243, -0.08182509988546371, -0.02509016916155815, -0.1749478280544281, 0.0935867577791214, -0.0028441199101507664, -0.14153844118118286, -0.08082125335931778, 0.16698794066905975, 0.24376517534255981, -0.346222847700119, 0.3906835615634918, 0.3151855766773224, -0.36969950795173645, 0.1554701030254364, 0.07123010605573654, -0.014265711419284344, -0.2106088101863861, 0.08311678469181061, -0.033375006169080734, -0.098110131919384, 0.058758966624736786, 0.04012402147054672, -0.23925559222698212, -0.07281102240085602, -0.10507112741470337, 0.06669145822525024, -0.05954980477690697, -0.09552877396345139, 0.13181091845035553, -0.184798464179039, -0.11766817420721054, 0.2327095866203308, -0.21249635517597198, 0.24664629995822906, 0.08046925812959671, -0.18748381733894348, -0.17014257609844208, 0.2321268767118454, 0.1569511890411377, 0.06218032166361809, -0.2732163369655609, -0.19342969357967377, -0.08632226288318634, 0.15060468018054962, 0.11472362279891968, 0.14636561274528503, -0.15041418373584747, 0.16516798734664917, 0.21181310713291168, 0.01626080647110939, 0.20589804649353027, 0.014021643437445164, -0.18400615453720093, -0.01581503637135029, 0.0961182489991188, -0.15491782128810883, 0.20754759013652802, 0.055210161954164505, -0.0916348323225975, -0.03896622732281685, -0.02470482513308525, 0.08297350257635117, -0.10474434494972229, -0.03837526962161064, 0.0009236952755600214, 0.13693182170391083, -0.06899003684520721, -0.01975681260228157, 0.14098939299583435, -0.11278633773326874, 0.018306540325284004, -0.04498552158474922, 0.11149010062217712, -0.0019751491490751505, -0.08123356103897095, 0.009407388046383858, -0.022962171584367752, 0.014984207227826118, 0.04913187399506569, -0.05963868275284767, 0.11786352843046188, 0.0003630106511991471, 0.0502893403172493, 0.24323660135269165, 0.08535845577716827, -0.1706014722585678, -0.1494678556919098, -0.07995256036520004, 0.15491244196891785, 0.0022096908651292324, 0.19368088245391846, -0.13389809429645538, -0.21538595855236053, 0.025220273062586784, -0.011758481152355671, -0.06161172315478325, -0.22260567545890808, -0.05917111039161682, -0.2070135921239853, -0.055331792682409286, 0.1696329563856125, -0.11340939253568649, 0.01015517208725214, 0.18892869353294373, 0.022402232512831688, -0.07143376022577286, 0.017439158633351326, 0.27974337339401245, -0.25433170795440674, -0.22632750868797302, -0.037722501903772354, 0.08616054058074951, -0.1508151739835739, 0.08365996181964874, -0.007020522374659777, 0.07120222598314285, 0.044568806886672974, 0.17132486402988434, -0.12835250794887543, -0.2004583179950714, 0.046363480389118195, 0.018203862011432648, -0.14788365364074707, 0.10703285038471222, -0.0024951233062893152, -0.008391642943024635, 0.09230995923280716, 0.11151931434869766, -0.057538241147994995, -0.07205174118280411, -0.09747093170881271, -0.16258113086223602, 0.019008411094546318, 0.024556774646043777, 0.07776477932929993, 0.04859728366136551, -0.1512637436389923, -0.20178818702697754, 0.07642999291419983, -0.07735064625740051, 0.13149452209472656, -0.13386498391628265, -0.12794284522533417, 0.08269607275724411, -0.012669217772781849, -0.1470702737569809, 0.018759937956929207, 0.1659817397594452, 0.003466705558821559, -0.11492767184972763, -0.07979010045528412, -0.15982216596603394, 0.13530434668064117, -0.060807012021541595, 0.05417543277144432, -0.020235717296600342, -0.4088815152645111, 0.01327943243086338, -0.21419993042945862, -0.07583708316087723, 0.06680171191692352, 0.1771998256444931, -0.07421782612800598, 0.03997701033949852, 0.10650330781936646, 0.1786498725414276, -0.16006945073604584, -0.01253512129187584, 0.23507918417453766, 0.09004795551300049, -0.19402295351028442, 0.02091328799724579, 0.04108565300703049, 0.04550367221236229, -0.047568753361701965, 0.004403525963425636, -0.0056264447048306465, -0.2257625311613083, 0.05137370154261589, -0.004198166076093912, -0.13837528228759766, 0.06936351209878922, 0.10094217211008072, -0.11151778697967529, -0.043996769934892654, -0.05650467425584793, 0.05082397907972336, 0.1632060408592224, 0.03177275136113167, 0.03645806387066841, -0.17131298780441284, 0.2005060613155365, 0.09531283378601074, -0.06827715039253235, -0.10379689186811447, 0.20685170590877533, -0.15148267149925232, -0.003522142069414258, -0.028249388560652733, -0.04682222753763199, 0.3875258266925812, 0.12703178822994232, -0.005474223289638758, 0.03285086527466774, -0.22953291237354279, 0.23333483934402466, -0.20136624574661255, -0.08974871784448624, -0.06031559780240059, -0.022335931658744812, 0.2023399919271469, 0.1343744993209839, -0.14195336401462555, -0.04197165369987488, 0.07039979100227356, -0.004249754827469587, -0.04326082766056061, -0.0640992745757103, 0.0951167568564415, -0.034886300563812256, 0.10937096178531647, -0.023986658081412315, 0.05620971694588661, -0.14138998091220856, -0.43594890832901, -0.04966818541288376, -0.034684088081121445, 0.07722629606723785, -0.1542082577943802, -0.18651661276817322, -0.14691734313964844, -0.1381721794605255, 0.1024894043803215, 0.18664239346981049, -0.13094624876976013, -0.017558472231030464, -0.013966570608317852, 0.05424090102314949, 0.040276046842336655, -0.05437364801764488, 0.32600295543670654, -0.06225381791591644, -0.1167302057147026, -0.06271950900554657, -0.009887943044304848, -0.14686667919158936, -0.15821681916713715, 0.08577648550271988, -0.23826460540294647, 0.21540850400924683, -0.2095404416322708, 0.13290511071681976, -0.017373383045196533, -0.006505063734948635, -0.010401308536529541, -0.0626571998000145, -0.04832935705780983, -0.04537510499358177, 0.15547800064086914, 0.13776475191116333, 0.02079194411635399, 0.1900596022605896, 0.08048570156097412, 0.051122035831213, 0.03404231369495392, 0.08735587447881699, 0.20181626081466675, -0.19715914130210876, 0.06673234701156616, 0.09903229773044586, 0.05245865508913994, 0.02895297482609749, -0.15663060545921326, 0.1966961771249771, 0.057017914950847626, 0.057538773864507675, 0.10353092849254608, 0.021447837352752686, -0.05681378021836281, 0.1657647043466568, -0.0494101457297802, -0.033927615731954575, -0.12299036979675293, 0.0379645861685276, 0.08812939375638962, 0.11967852711677551, 0.09119553864002228, 0.1049736738204956, 0.17816315591335297, 0.15536059439182281, 0.1054658517241478, -0.08811337500810623, 0.013978907838463783, 0.12130601704120636, -0.161531463265419, -0.04251808300614357, -0.23208574950695038, 0.4083719253540039, -0.17124372720718384, -0.2767762243747711, 0.21263639628887177, -0.029590215533971786, -0.019261009991168976, -0.16544833779335022, 0.11841705441474915, -0.0097844572737813, -0.10014211386442184, 0.04317278042435646, -0.008297394961118698, -0.09082484245300293, 0.269374281167984, -0.17317326366901398, -0.05715443193912506, 0.07933485507965088, 0.028086410835385323, -0.007552169729024172, -0.0396769642829895, -0.02534255012869835, -0.06648813933134079, -0.1839805245399475, 0.16398994624614716, -0.022717958316206932, 0.16673769056797028, 0.2715836763381958, 0.02287878841161728, -0.21757176518440247, -0.22660189867019653, -0.018091484904289246, -0.019603675231337547, -0.012069910764694214, 0.0180924441665411, -0.2177523374557495, -0.18388502299785614, -0.19964486360549927, 0.03284679353237152, -0.04459867998957634, -0.1674841344356537, 0.1453133225440979, -0.09908907115459442, -0.05210847035050392, 0.11240489780902863, -0.17669889330863953, -0.12645860016345978, 0.2888789176940918, -0.1103418618440628, -0.18497681617736816, 0.10548306256532669, 0.17799603939056396, -0.1329658180475235, -0.27079641819000244, 0.054918624460697174, -0.05758397653698921, 0.09124688059091568, 0.07643157988786697, 0.014686948619782925, -0.10962298512458801, 0.013174897991120815, -0.09837467968463898, -0.008974410593509674, -0.022617844864726067, -0.028118278831243515, -0.0454314760863781, 0.10102002322673798, 0.08857768028974533, 0.05839383974671364, -0.09207966923713684, 0.018323179334402084, 0.1470065414905548, -0.03832071274518967, 0.08864256739616394, -0.09906405210494995, -0.034349530935287476, -0.07324908673763275, 0.09752356261014938, 0.0780191570520401, -0.11805456131696701, 0.00428446801379323, -0.15930742025375366, 0.032737813889980316, 0.06218380853533745, 0.21047160029411316, 0.16374161839485168, -0.043704722076654434, -0.020828021690249443, 0.054079536348581314, 0.14807328581809998, -0.020940685644745827, -0.022182023152709007, -0.17849551141262054, 0.18188531696796417, 0.03765600174665451, -0.06526143848896027, -0.1960797756910324, 0.1733664572238922, -0.03877542167901993, 0.06890213489532471, 0.16976387798786163, 0.21171358227729797, 0.10400495678186417, 0.03266681358218193, -0.03679927811026573, 0.2503219544887543, 0.026255996897816658, -0.07597421854734421, 0.2321140021085739, 0.14504750072956085, -0.22181783616542816, -0.0927443578839302, 0.026125451549887657, 0.18089774250984192, -0.19280077517032623, 0.004812981933355331, 0.2300666868686676, -0.03951658308506012, -0.04594947770237923, 0.06921442598104477, -0.02417074702680111, -0.028337789699435234, 0.020267482846975327, -0.05547339841723442, -0.008750700391829014, 0.040277350693941116, 0.05474875867366791, 0.063308484852314, -0.18694747984409332, -0.06684249639511108, -0.11713060736656189, 0.2676096260547638, 0.125888854265213, 0.0857372060418129, -0.1787443310022354, 0.016730470582842827, 0.25931036472320557, -0.0829780250787735, 0.026357019320130348, 0.10320574045181274, -0.07579797506332397, 0.11248816549777985, 0.12146682292222977, -0.17205744981765747, 0.07553431391716003, 0.22355133295059204, -0.2620373070240021, -0.2730334401130676, 0.01066459808498621, -0.04552716389298439, 0.23565632104873657, 0.18053334951400757, 0.08528263121843338, 0.11848493665456772, 0.036775801330804825, 0.015106646344065666, -0.03218504413962364, -0.12020137906074524, 0.07829979807138443, -0.08136817067861557, -0.11199663579463959, 0.11278175562620163, -0.07576656341552734, -0.06906294077634811, -0.17999951541423798, 0.10868413746356964, 0.014017934910953045, -0.17824743688106537, 0.13341636955738068, 0.16509489715099335, 0.06565988808870316, 0.06753307580947876, 0.12200136482715607, 0.006213136948645115, 0.035329077392816544, -0.15153662860393524, 0.08517765998840332, 0.18882285058498383, 0.10236755013465881, 0.04436348006129265, 0.013987094163894653, -0.05013945698738098, 0.06489630043506622, -0.1717301309108734, 0.008730726316571236, -0.10626180469989777, -0.01911872997879982, -0.0920984223484993, 0.05592808872461319, -0.043932054191827774, -0.0669192373752594, 0.13220776617527008, -0.041793256998062134, -0.1509835571050644, -0.01837436854839325, -0.06339261680841446, 0.33880430459976196, -0.12388057261705399, -0.05633922666311264, 0.05429643392562866, 0.11693523824214935, 0.03479183092713356, 0.0033839072566479445, 0.22834956645965576, -0.09079056233167648, 0.003271443536505103, 0.165594682097435, -0.13612724840641022, 0.08867864310741425, 0.10675452649593353, -0.016036029905080795, 0.1981123983860016, -0.05062125250697136, 0.04653479531407356, -0.0001546328276162967, -0.18749767541885376, 0.2035280168056488, -0.31026187539100647, 0.08155839145183563, 0.038334447890520096, 0.05691688135266304, 0.043532844632864, 0.03152456134557724, -0.10591063648462296, 0.12353052198886871, -0.08803814649581909, 0.08327183127403259, -0.0979309231042862, -0.04522022232413292, -0.23349487781524658, 0.08175376057624817, -0.1459026038646698, -0.12976501882076263, 0.11298307776451111, -0.1484440565109253, 0.21919557452201843, -0.11119351536035538, -0.018287498503923416, 0.12853795289993286, -0.020151345059275627, 0.2178688496351242, -0.3906594216823578, 0.16137322783470154, 0.009988835081458092, -0.5499390363693237, 0.15433478355407715, 0.047403525561094284, 0.059268638491630554, 0.029875164851546288, -0.023398179560899734, -0.00860032718628645, 0.05198254808783531, -0.06028193235397339, -0.04202292487025261, 0.09172803163528442, -0.02483433112502098, 0.058206237852573395, -0.003705293172970414, -0.08700018376111984, 0.032815974205732346, -0.03377903252840042, 0.012697495520114899, -0.2003544270992279, -0.44692614674568176, 0.6876696348190308, 0.5509384870529175, -0.5516241788864136, 0.25745755434036255, -0.19019809365272522, 0.07039251178503036, 0.6429301500320435, -0.9199293851852417, 0.8510504961013794, 0.589899480342865, 0.04764149710536003, -0.26616811752319336, 0.26009365916252136, -0.6678196787834167, 0.3948593735694885, -0.4420633316040039, -0.10714327543973923, -0.3449893891811371, 0.1357439011335373, 0.11100074648857117, 0.410745769739151, 0.07543041557073593, 0.3621319830417633, 0.39179033041000366, 0.30625447630882263, 0.1974330097436905, -0.3603181540966034, 0.17623835802078247, -0.22418999671936035, -0.030856331810355186, 0.22076594829559326, -0.14473259449005127, 0.10512144863605499, 0.09115083515644073, 0.15627790987491608, 0.1426699310541153, -0.021436652168631554, -0.2415897101163864, -0.17895489931106567, -0.032243743538856506, -0.15692852437496185, -0.13945114612579346, 0.03413930907845497, 0.3413269817829132, 0.19066129624843597, 0.020307978615164757, 0.28326156735420227, -0.3008556067943573, 0.24666695296764374, -0.48337557911872864, 0.009214572608470917, -0.44319605827331543, 0.00887205172330141, -0.5035415291786194, -0.438689649105072, 0.3688881993293762, 0.24703845381736755, 0.3564530313014984, 0.13873448967933655, -0.5564591884613037, 0.24711939692497253, -0.18114392459392548, 0.18354126811027527, -0.07182476669549942, 0.07117659598588943, 0.09538494050502777, -0.06527931243181229, 0.2983381450176239, -0.1461958885192871, 0.39690545201301575, 0.38104555010795593, -0.236868754029274, -0.0857117772102356, 0.05676937475800514, 0.08071865886449814, 0.301523894071579, 0.00841785129159689, -0.1174740344285965, 0.14722885191440582, -0.17533637583255768, 0.29523661732673645, -0.04875975102186203, 0.012832106091082096, -0.1259729117155075, 0.17044655978679657, -0.12923569977283478, 0.10287410020828247, 0.001953616738319397, -0.008786763064563274, 0.17081934213638306, -0.22070595622062683, -0.16509611904621124, 0.20330476760864258, -0.17367373406887054, -0.157812237739563, -0.11432845890522003, 0.09878835827112198, -0.18918684124946594, 0.1571028232574463, -0.15268021821975708, 0.24863654375076294, 0.11845418065786362, -0.12361663579940796, -0.2674177587032318, -0.2275414615869522, 0.27126261591911316, 0.14508037269115448, 0.0826057717204094, 0.2744949460029602, 0.14529767632484436, 0.05396813154220581, 0.18594294786453247, -0.10837525129318237, -0.07670623809099197, 0.2366076409816742, -0.18925218284130096, 0.04990498349070549, -0.029596712440252304, -0.16842696070671082, 0.27251118421554565, 0.26813045144081116, -0.10306727141141891, 0.14625027775764465, 0.04530179500579834, 0.062005460262298584, 0.07702269405126572, 0.27461332082748413, 0.04651255905628204, -0.25904616713523865, -0.21592089533805847, 0.30269598960876465, -0.2774943709373474, 0.15958601236343384, -0.17590291798114777, 0.12310829013586044, 0.2684636116027832, -0.01071320753544569, 0.2911616265773773, -0.05729586258530617, 0.02444334700703621, 0.0010119009530171752, 0.13060596585273743, -0.12507322430610657, 0.2463584840297699, -0.05091409012675285, 0.02405434288084507, 0.14243343472480774, -0.1098296046257019, -0.2349988967180252, -0.04605448991060257, -0.23784855008125305, 0.15257960557937622, 0.06062060594558716, 0.2059979885816574, -0.2224615067243576, -0.14011935889720917, 0.07697930932044983, -0.03958568349480629, 0.19979459047317505, -0.10119441151618958, -0.1389310508966446, 0.33211928606033325, 0.020070258527994156, 0.23301784694194794, -0.14898483455181122, -0.15891338884830475, -0.07487846165895462, -0.08102051168680191, 0.02831449545919895, -0.15128982067108154, -0.03447314351797104, 0.04760870710015297, 0.2419930100440979, -0.10349801927804947, 0.23900683224201202, -0.18472154438495636, -0.08936365693807602, -0.34887948632240295, 0.30807599425315857, -0.22203965485095978, 0.1409830003976822, -0.0005039903917349875, 0.36237776279449463, -0.057383641600608826, -0.36770904064178467, 0.0583161897957325, 0.023027170449495316, -0.26677608489990234, 0.009181063622236252, 0.2642853558063507, 0.06647975742816925, 0.032723359763622284, -0.05451397970318794, -0.22290478646755219, 0.05376926437020302, 0.08313857018947601, 0.26074180006980896, 0.15936796367168427, -0.021180249750614166, -0.24763765931129456, -0.3208934962749481, 0.3025369942188263, -0.1928340345621109, -0.24456359446048737, -0.03716116026043892, 0.1759805977344513, -0.3043695092201233, -0.1746000349521637, -0.14655865728855133, -0.10875488817691803, 0.21372438967227936, 0.05893982946872711, -0.20536933839321136, -0.1598471850156784, 0.1802852302789688, 0.05442693084478378, -0.1357933133840561, -0.0039919354021549225, -0.025203166529536247, 0.04134255275130272, 0.0013705423334613442, -0.11784069985151291, -0.1905193328857422, 0.14097988605499268, -0.28045132756233215, 0.03167465701699257, -0.08223866671323776, -0.030806126073002815, 0.11793401092290878, -0.04604017361998558, 0.17487354576587677, 0.008959800936281681, 0.198425754904747, -0.3704588711261749, -0.03424026444554329, 0.1800134927034378, -0.24612747132778168, -0.024660713970661163, -0.034197382628917694, 0.33079850673675537, 0.07042676955461502, -0.12380324304103851, -0.230281800031662, -0.27471494674682617, -0.08743178844451904, -0.3733436167240143, -0.1772528439760208, 0.3397035300731659, 0.23259367048740387, 0.26633331179618835, 0.04321422055363655, -0.06652531772851944, 0.15524126589298248, -0.1778583526611328, -0.031040716916322708, -0.08044027537107468, -0.01954840123653412, -0.41774269938468933, -0.05883191153407097, -0.0659102275967598, -0.002432062290608883, -0.1593368649482727, 0.1611466109752655, 0.16370192170143127, 0.1750517338514328, 0.3325222432613373, -0.16973377764225006, 0.01238657534122467, -0.11768241971731186, 0.12450867891311646, 0.018530908972024918, 0.02362283691763878, 0.05564005672931671, 0.07644712179899216, -0.017642362043261528, 0.10197232663631439, 0.03960125148296356, -0.016635844483971596, -0.19061532616615295, -0.0758473351597786, 0.015302100218832493, 0.041603948920965195, 0.04616055265069008, 0.06704455614089966, 0.03266704082489014, -0.0027047540061175823, 0.1249251663684845, -0.10813741385936737, -0.0656588077545166, -0.03258616477251053, -0.1369948387145996, 0.18172401189804077, 0.3010944426059723, -0.5540891289710999, 0.11874920129776001, -0.023470379412174225, 0.2862958014011383, 0.02850678563117981, -0.05710369348526001, -0.1711362898349762, -0.057652465999126434, -0.04839131608605385, -0.05702937766909599, 0.16523270308971405, 0.1981128603219986, -0.0738799124956131, -0.09137594699859619, -0.26125234365463257, 0.028628643602132797, 0.1472683846950531, 0.14937454462051392, -0.1754954606294632, -0.12579748034477234, -0.1277770698070526, 0.10144710540771484, 0.020489778369665146, 0.014220371842384338, -0.1732414811849594, 0.04773982614278793, -0.020542575046420097, -0.38857021927833557, -0.049287158995866776, -0.031017104163765907, 0.045822542160749435, -0.1425607055425644, 0.13290786743164062, 0.009606005623936653, -0.20686787366867065, -0.1757144182920456, -0.37706321477890015, 0.01954415626823902, -0.0950593575835228, -0.18139022588729858, 0.0794077217578888, -0.07571588456630707, 0.06379648298025131, 0.09042375534772873, 0.2786213755607605, -0.36207497119903564, 0.10039452463388443, 0.08378179371356964, -0.6508796811103821, 0.11629217863082886, -0.055079683661460876, 0.29994314908981323, 0.10169268399477005, -0.014037043787539005, -0.0018365458818152547, 0.1877783089876175, 0.05612843856215477, -0.18004530668258667, 0.03227856010198593, -0.09358339756727219, 0.22106200456619263, -0.04832812026143074, -0.027898550033569336, -0.1345289647579193, -0.07802864909172058, 0.08231770992279053, 0.08905728906393051, -0.05629238858819008, -0.03632436692714691, 0.10967181622982025, 0.12433411926031113, -0.012312137521803379, 0.17937855422496796, 0.1193850114941597, 0.10788994282484055, 0.023877471685409546, 0.160190150141716, -0.06639473885297775, 0.047344401478767395, 0.024458281695842743, -0.12411148101091385, 0.1536591500043869, -0.17043370008468628, 0.03134222701191902, -0.2084631472826004, 0.023651206865906715, -0.03852573037147522, 0.043083179742097855, 0.023223796859383583, 0.04310501739382744, -0.1752011477947235, 0.08775894343852997, 0.2054467350244522, -0.06182115897536278, -0.16251616179943085, 0.0029988111928105354, -0.0008036973304115236, 0.18576906621456146, 0.034246835857629776, -0.046387139707803726, -0.040197066962718964, 0.03900150954723358, -0.05055621266365051, -0.009477117098867893, -0.23615853488445282, -0.09279825538396835, 0.11194588243961334, 0.06294761598110199, 0.09560414403676987, -0.0329018272459507, -0.1391630321741104, -0.043621789664030075, 0.1422431766986847, 0.058915942907333374, 0.024214424192905426, -0.012500228360295296, -0.019063984975218773, 0.002227304968982935, 0.11923983693122864, 0.12882673740386963, -0.05575597286224365, -0.0535312294960022, 0.02987685613334179, -0.11413237452507019, 0.0951380506157875, 0.039587393403053284, 0.041573263704776764, -0.09618654102087021, 0.026448817923665047, -0.009287042543292046, -0.12910357117652893, 0.008803597651422024, -0.1363421231508255, -0.03813859075307846, -0.16910500824451447, -0.05100534111261368, 0.1157112643122673, 0.2510201930999756, 0.17224034667015076, 0.03092990629374981, 0.1289563626050949, -0.1276906132698059, 0.10256534814834595, 0.27663496136665344, 0.014555108733475208, -0.07699360698461533, 0.09447597712278366, -0.014608262106776237, 0.02536829560995102, 0.06070009246468544, 0.10481695830821991, -0.004303992725908756, -0.09365115314722061, -0.09952380508184433, 0.19066672027111053, -0.0076714446768164635, 0.07209057360887527, 0.007533436641097069, -0.035458873957395554, 0.016575641930103302, 0.21475914120674133, 0.109965980052948, -0.15505455434322357, -0.2871689200401306, -0.20807905495166779, 0.009945956990122795, 0.19355902075767517, 0.12314943224191666, 0.05742122232913971, -0.21548748016357422, 0.1641503870487213, 0.09413555264472961, 0.15324105322360992, 0.06436586380004883, 0.162079319357872, -0.1522468477487564, 0.13959069550037384, 0.09741329401731491, -0.21062450110912323, -0.13546617329120636, 0.06522871553897858, 0.0071695102378726006, -0.12674938142299652, -0.005303806625306606, -0.033102165907621384, 0.14755532145500183, -0.02051195129752159, -0.12968778610229492, 0.08513111621141434, 0.10779265314340591, 0.027338413521647453, -0.20074036717414856, 0.36257249116897583, -0.08953049778938293, 0.03133636340498924, -0.059375785291194916, 0.008602036163210869, 0.16134022176265717, -0.12455766648054123, -0.14484256505966187, -0.04656541347503662, 0.0602443590760231, 0.03200233727693558, -0.0921231210231781, -0.02936619147658348, 0.05383463203907013, 0.17532677948474884, 0.023154931142926216, -0.09286697953939438, -0.2165987491607666, 0.1803150624036789, -0.048152271658182144, -0.06369733810424805, -0.10602135956287384, -0.013956860639154911, 0.004988812375813723, 0.14765560626983643, -0.01537120807915926, -0.04506981000304222, -0.027936890721321106, -0.09547317028045654, -0.16930364072322845, 0.047159723937511444, 0.023098748177289963, -0.20410531759262085, -0.04551276937127113, -0.006857835687696934, -0.026518655940890312, -0.0003239871293772012, -0.03211527690291405, 0.11469724029302597, -0.08865727484226227, -0.10771973431110382, 0.19772571325302124, -0.007760212756693363, -0.07622220367193222, -0.018299415707588196, 0.011941319331526756, -0.08953336626291275, 0.035386741161346436, 0.2242494821548462, 0.014905131421983242, -0.21727953851222992, 0.10639158636331558, -0.11492189019918442, 0.22884593904018402, -0.16258937120437622, -0.17008791863918304, -0.012261216528713703, -0.16609202325344086, -0.049631815403699875, -0.10835627466440201, 0.06511765718460083, -0.02758711576461792, 0.12432517111301422, -0.0882570892572403, -0.16164731979370117, -0.25408485531806946, 0.10326484590768814, -0.03665555268526077, 0.043256551027297974, 0.005551418289542198, -0.08545509725809097, -0.06615441292524338, -0.04522554203867912, -0.12519095838069916, 0.17204000055789948, -0.055979691445827484, -0.0424809530377388, -0.060424212366342545, 0.04376702010631561, -0.056698985397815704, -0.09970676153898239, 0.016318637877702713, -0.007394986227154732, 0.09366285800933838, 0.0461542010307312, -0.11357921361923218, 0.13039204478263855, 0.09161296486854553, -0.08966273814439774, -0.3253037929534912, -0.14066021144390106, -0.13404105603694916, -0.06377632170915604, -0.06293527781963348, -0.11784864962100983, 0.000565266702324152, 0.05508767440915108, -0.023940468207001686, -0.11800455302000046, -0.14831075072288513, -0.129811629652977, -0.27508753538131714, -0.002652496099472046, -0.024856610223650932, -0.2976312041282654, -0.004279503598809242, 0.181940957903862, 0.009721687994897366, -0.05820467695593834, 0.08045153319835663, -0.06074044108390808, 0.042979296296834946, 0.10408064723014832, 0.1384856104850769, -0.01400858722627163, -0.10821539163589478, -0.1398126184940338, 0.11095856130123138, 0.06546023488044739, 0.169755756855011, 0.12167005985975266, 0.03282497823238373, 0.03017197549343109, -0.09102881699800491, -0.02146635390818119, 0.31307485699653625, -0.08729562163352966, -0.08236245810985565, 0.070929616689682, -0.01939842849969864, -0.20872493088245392, -0.06086738035082817, 0.08019641786813736, 0.10686840116977692, -0.04782410338521004, -0.0026399525813758373, -0.03476592153310776, -0.0920708179473877, 0.047634556889534, -0.02865966036915779, 0.1144731342792511, -0.07213366031646729, 0.14274922013282776, -0.06196830794215202, -0.13678695261478424, 0.120491161942482, -0.02548942156136036, 0.07077421993017197, 0.07754649221897125, -0.17803576588630676, 0.15453815460205078, 0.016652576625347137, -0.15518708527088165, -0.06692013144493103, -0.001664132927544415, 0.04401182383298874, -0.12775416672229767, 0.05235748738050461, -0.14399270713329315, 0.06905323266983032, 0.03665005415678024, 0.1610839068889618, -0.05351892486214638, -0.04966872185468674, -0.11930305510759354, -0.05663362890481949, 0.0869007259607315, -0.03494955599308014, -0.16306883096694946, -0.21059584617614746, 0.008418231271207333, -0.08162260055541992, 0.16296814382076263, 0.12917360663414001, 8.074179640971124e-05, 0.034939803183078766, 0.1344607174396515, -0.18397697806358337, -0.12406378984451294, -0.09739726781845093, -0.1002265214920044, 0.04841971769928932, -0.08464538305997849, -0.021130910143256187, 0.11285202950239182, 0.018581004813313484, 0.1913839429616928, 0.11962958425283432, 0.19856318831443787, -0.11909782886505127, 0.12342293560504913, 0.12347720563411713, -0.3660365641117096, 0.12391284108161926, -0.07996388524770737, 0.007397854700684547, -0.06177385896444321, -0.15854226052761078, 0.01391687709838152, 0.08417610079050064, -0.11115460842847824, 0.058838892728090286, 0.072265625, -0.02230316400527954, -0.08229468017816544, -0.1286260485649109, -0.12181173264980316, -0.13511142134666443, -0.07851716876029968, 0.08230502903461456, -0.02246551774442196, -0.1614229530096054, 0.03769432753324509, 0.13076600432395935, -0.02304021827876568, 0.13789083063602448, -0.08564458042383194, -0.09767043590545654, 0.11036556214094162, -0.06417111307382584, -0.04054311662912369, 0.15960851311683655, -0.010736563242971897, -0.15032453835010529, -0.015032334253191948, 0.13907688856124878, -0.09411977976560593, 0.026551101356744766, -0.035751909017562866, -0.028591671958565712, -0.039391472935676575, -0.13127419352531433, 0.17320360243320465, -0.05293167755007744, -0.049803994596004486, 0.17164583504199982, 0.09732677787542343, -0.1739790141582489, 0.02973015420138836, 0.18506190180778503, -0.1598331332206726, 0.22018244862556458, 0.27055442333221436, -0.11351328343153, -0.011759046465158463, -0.0582435205578804, 0.046595554798841476, 0.15767624974250793, -0.172402486205101, 0.06326712667942047, -0.016479698941111565, 0.05332089215517044, -0.07460950314998627, 0.13983121514320374, -0.15664131939411163, 0.052085962146520615, 0.1256718784570694, 0.18963408470153809, -0.0015440401621162891, -0.018724702298641205, -0.2461739182472229, 0.05904344469308853, -0.007484429515898228, 0.0048849740996956825, 0.09115923941135406, 0.0015297114150598645, -0.03727807104587555, -0.11569094657897949, 0.01704513467848301, 0.17018184065818787, -0.06260696053504944, -0.11086869239807129, 0.05050880089402199, 0.09517740458250046, -0.08484716713428497, -0.05035799369215965, 0.04909423366189003, -0.08617357909679413, -0.015412475913763046, -0.06461521238088608, 0.22865378856658936, 0.1964484304189682, 0.22919636964797974, -0.029687657952308655, 0.13128308951854706, -0.014050553552806377, 0.22933021187782288, -0.02289874106645584, 0.05765259638428688, 0.1310560554265976, -0.05295047536492348, 0.018933851271867752, -0.11427084356546402, -0.007932987064123154, -0.07372824102640152, -0.08265681564807892, 0.23845787346363068, 0.05131163448095322, -0.07238377630710602, 0.0986189916729927, 0.150092214345932, -0.0895710363984108, 0.11399079859256744, 0.045093096792697906, -0.037922825664281845, -0.13888582587242126, 0.007044130004942417, 0.16000066697597504, 0.08006301522254944, 0.08243727684020996, -0.020060816779732704, -0.06471331417560577, 0.020681113004684448, -0.04124387726187706, -0.12078797817230225, -0.12898188829421997, -0.2643059194087982, -0.023470543324947357, -0.09257548302412033, 0.17404431104660034, -0.07843227684497833, -0.04416034743189812, 0.16499988734722137, 0.13966599106788635, 0.16459091007709503, 0.030575325712561607, 0.09591622650623322, 0.1432989537715912, -0.09516369551420212, 0.007760823704302311, -0.02598780207335949, 0.1246904507279396, 0.023949820548295975, 0.05436385050415993, -0.06244887039065361, 0.06374353915452957, -0.17737016081809998, 0.20307689905166626, 0.0400250181555748, -0.11353501677513123, -0.013815688900649548, -0.21778377890586853, -0.1066327840089798, 0.14271093904972076, -0.07813462615013123, -0.08777505159378052, 0.0318521149456501, 0.0672094076871872, -0.061682380735874176, -0.06623831391334534, -0.009355973452329636, 0.0067978487350046635, 0.20053113996982574, -0.004864332731813192, -0.09639252722263336, -0.02684231661260128, -0.18165117502212524, 0.14682888984680176, 0.14763200283050537, 0.2269585281610489, -0.11933303624391556, 0.11377763748168945, 0.14937248826026917, -0.02086506225168705, 0.10125760734081268, 0.14670632779598236, 0.07759781181812286, -0.20517057180404663, 0.2263961285352707, -0.06838592141866684, -0.0026601538993418217, -0.20658551156520844, -0.1477540135383606, -0.08662781864404678, 0.05083772912621498, -0.06502850353717804, 0.19487664103507996, 0.08351510763168335, 0.24173131585121155, -0.2191123068332672, 0.16205453872680664, -0.11192222684621811, 0.047831594944000244, 0.11209600418806076, -0.10082965344190598, -0.07532131671905518, -0.10894779860973358, -0.030430972576141357, -0.23577085137367249, -0.0003557525633368641, 0.11040719598531723, -0.05293843522667885, 0.0009570666588842869, -0.09797096997499466, -0.020052509382367134, -0.19588957726955414, 0.09992167353630066, -0.15344685316085815, -0.03932609036564827, -0.005931694991886616, 0.10745888948440552, -0.08905419707298279, 0.0825224369764328, -0.21106116473674774, -0.09396516531705856, 0.14610256254673004, 0.07309885323047638, -0.10139936208724976, -0.15820829570293427, -0.1446383148431778, -0.2880952060222626, -0.40939784049987793, 0.16440929472446442, 0.09066662937402725, 0.04185718670487404, -0.06097817048430443, 0.20775224268436432, 0.050277143716812134, -0.012531603686511517, -0.004912529606372118, -0.004486259073019028, 0.1156006008386612, -0.004768934566527605, 0.04072040691971779, 0.0004043624794576317, -0.13459426164627075, -0.012701851315796375, 0.2420467585325241, -0.10306233912706375, 0.13693386316299438, -0.009764047339558601, -0.0986388623714447, 0.019568512216210365, 0.1423131376504898, 0.04513216018676758, 0.16091512143611908, 0.08459414541721344, 0.12962451577186584, -0.017034415155649185, 0.07305245101451874, 0.11745201796293259, 0.14044082164764404, -0.018044453114271164, -0.04717865586280823, -0.09990376979112625, 0.12477727979421616, 0.0015340304234996438, 0.01870088465511799, -0.145956888794899, -0.03125579282641411, -0.00841260701417923, 0.22174058854579926, -0.03521158546209335, -0.12503686547279358, -0.03696129843592644, 0.041560929268598557, 0.021810783073306084, 0.23205824196338654, 0.18848712742328644, 0.07915724068880081, 0.006272554397583008, -0.06101130694150925, -0.07190510630607605, -0.0004717324045486748, -0.15313199162483215, -0.14323659241199493, 0.17907331883907318, -0.013004465959966183, -0.12264144420623779, 0.06263101100921631, 0.09138486534357071, 0.11217644810676575, 0.18995901942253113, -0.18288369476795197, 0.03532402589917183, 0.1220497414469719, -0.14293470978736877, 0.061058271676301956, 0.01519797369837761, -0.19190528988838196, 0.06269269436597824, 0.01941060833632946, -0.12122447788715363, 0.07424893975257874, 0.10269404202699661, -0.005550969857722521, -0.07905038446187973, -0.1369137018918991, 0.19323031604290009, -0.1332879513502121, -0.15053565800189972, 0.05779402330517769, -0.09810319542884827, 0.07355077564716339, 0.044910334050655365, 0.026877420023083687, -0.04991530999541283, -0.14923900365829468, 0.10205615311861038, 0.1895328015089035, 0.010023747570812702, 0.04868732765316963, -0.03299771249294281, -0.2001243531703949, -0.045166756957769394, 0.07118642330169678, -0.02486759051680565, -0.03324689343571663, -0.20856045186519623, -0.23411454260349274, 0.005253013223409653, 0.01806710846722126, -0.15728797018527985, 0.1280371993780136, 0.03253994137048721, -0.024487383663654327, 0.0525725856423378, -0.10019657760858536, 0.0010354146361351013, 0.14271125197410583, -0.0809420794248581, -0.20804867148399353, 0.16059453785419464, 0.10831250995397568, -0.06615151464939117, 0.03910176083445549, 0.09516704082489014, -0.03542967513203621, -0.2630525827407837, -0.03729589283466339, 0.20770075917243958, 0.021511776372790337, 0.07103472948074341, -0.15270976722240448, 0.12053182721138, 0.06354115903377533, -0.2385677844285965, -0.006737320218235254, 0.1788971722126007, 0.07918205857276917, -0.045720577239990234, -0.08827012777328491, -0.22836898267269135, 0.12380564957857132, -0.01313017401844263, 0.2265169769525528, -0.08726804703474045, -0.06275327503681183, -0.2127222716808319, 0.0105194803327322, 0.1915561854839325, -0.09837831556797028, 0.011722086928784847, -0.12409435212612152, -0.04163026809692383, -0.1537151038646698, 0.0984083041548729, -0.05142407864332199, -0.07325423508882523, -0.058954134583473206, -0.016109582036733627, 0.0028811905067414045, -0.011075998656451702, 0.02495092898607254, 0.059805817902088165, 0.0887591764330864, -0.14881683886051178, -0.017858056351542473, 0.2383231371641159, 0.059159912168979645, -0.05371138080954552, 0.0781019777059555, -0.052319254726171494, 0.13765031099319458, 0.09996320307254791, 0.0066721197217702866, -0.12517912685871124, 0.06442997604608536, 0.1285107135772705, 0.006154845934361219, -0.03966810926795006, 0.026719069108366966, 0.022498566657304764, -0.00635800464078784, 0.09410553425550461, 0.592229425907135, 0.05069498345255852, 0.4959981441497803, -0.889549195766449, -0.416838675737381, 0.13984796404838562, 0.5662408471107483, -0.18618835508823395, 0.3099440336227417, 0.21588143706321716, -0.8902428150177002, 0.25720030069351196, 0.05491764098405838, -0.8552786707878113, 0.07396715879440308, -0.2720707058906555, -0.11582193523645401, -0.26205044984817505, 0.19369718432426453, -0.5018020868301392, 0.1324339658021927, 0.2900298833847046, -0.05410505086183548, -0.2918102741241455, -0.36841097474098206, 0.034245990216732025, -0.05027631297707558, -0.1407930552959442, 0.06689038872718811, 0.007930638268589973, 0.24223387241363525, -0.11120817810297012, -0.4267909526824951, -0.3721552789211273, 0.3002524971961975, -0.2589649260044098, -0.10479478538036346, -0.44456008076667786, 0.35860463976860046, 0.06976285576820374, -0.19048002362251282, 0.06237206980586052, -0.3610142767429352, 0.238173246383667, -0.13175304234027863, 0.029082167893648148, 0.013200218789279461, 0.3943183124065399, 0.09167357534170151, 0.22650504112243652, -0.27394431829452515, -0.34970322251319885, -0.0863306000828743, -0.08679038286209106, -0.14360909163951874, 0.08260004967451096, 0.12221042066812515, -0.21100002527236938, 0.03615093231201172, -0.12368371337652206, 0.007584447506815195, 0.16388028860092163, 0.18019339442253113, 0.07775893807411194, -0.4244658052921295, -0.03864715248346329, -0.13531391322612762, 0.08425212651491165, 0.35078877210617065, 0.3212348222732544, 0.15363173186779022, -0.04011140763759613, -0.2770725190639496, -0.21630102396011353, 0.0271124430000782, -0.45042094588279724, 0.1586514264345169, 0.05899703502655029, 0.10371127724647522, -0.34055882692337036, 0.3479709029197693, -0.02783755399286747, -0.06392169743776321, 0.21136267483234406, -0.13529908657073975, -0.2238188087940216, 0.23775680363178253, -0.05352947860956192, 0.3431532084941864, 0.282981812953949, 0.1140013337135315, 0.290352463722229, -0.16187448799610138, -0.2806236147880554, -0.2379404455423355, 0.0553203709423542, -0.1930253803730011, 0.10380952805280685, 0.2946421802043915, 0.3350953757762909, -0.24702909588813782, -0.11196402460336685, 0.07836109399795532, 0.09736942499876022, 0.23645256459712982, 0.3382726013660431, -0.3465939462184906, 0.49739405512809753, -0.006950387731194496, 0.06781017780303955, -0.6501755714416504, 0.2390558272600174, -0.21746478974819183, -0.14029674232006073, -0.045974504202604294, -0.2561314105987549, -0.029200715944170952, -0.34160733222961426, 0.2233397364616394, 0.05683088302612305, -0.3151629567146301, 0.05666010081768036, -0.06533792614936829, -0.01877685822546482, 0.06084488332271576, -0.08096878975629807, 0.11035998910665512, -0.11826469749212265, 0.018664103001356125, 0.11563250422477722, -0.08827760815620422, 0.11853320151567459, 0.08393856137990952, -0.4145377576351166, 0.16375036537647247, 0.3280256390571594, 0.0317109189927578, 0.14716170728206635, 0.050313957035541534, 0.2734712064266205, -0.12025897204875946, 0.05821605399250984, 0.18057610094547272, 0.20577913522720337, -0.04527219012379646, 0.13227742910385132, -0.14747487008571625, -0.20206022262573242, 0.20092885196208954, 0.3250664472579956, -0.3441041111946106, -0.22209954261779785, -0.11572485417127609, -0.11854735761880875, 0.181338369846344, -0.1854325383901596, 0.32569900155067444, 0.12552887201309204, 0.1871475726366043, -0.099210724234581, -0.05616828426718712, 0.2028445303440094, 0.1314135491847992, 0.10684838891029358, -0.2024589627981186, -0.11786872893571854, -0.13109686970710754, 0.1484726220369339, -0.1533939242362976, -0.094172403216362, -0.058557093143463135, -0.1155925914645195, 0.16644465923309326, -0.28188639879226685, 0.11756949871778488, 0.217873215675354, -0.1401858925819397, 0.23234224319458008, -0.36312243342399597, -0.2654876708984375, -0.10161315649747849, 0.0785515308380127, -0.0190429650247097, -0.2545642852783203, 0.12535123527050018, -0.1504773497581482, -0.08759184181690216, -0.06859481334686279, -0.2456420361995697, 0.12288820743560791, 0.24830316007137299, -0.3238633871078491, 0.03978980705142021, 0.12734010815620422, -0.061059076339006424, -0.2889816462993622, -0.0826943889260292, -0.27127689123153687, 0.024983206763863564, -0.04989573732018471, -0.29769662022590637, 0.13723301887512207, 0.21102401614189148, 0.2574552893638611, -0.18140636384487152, 0.2531232237815857, -0.2333676517009735, -0.2890518307685852, 0.13943642377853394, 0.29272910952568054, 0.01837201416492462, 0.24352027475833893, -0.13421961665153503, 0.3383080065250397, -0.4866093397140503, -0.05825747549533844, 0.17462672293186188, -0.018896792083978653, 0.05152424797415733, -0.21515768766403198, -0.3114446997642517, 0.2344367802143097, 0.1322038173675537, -0.4573412239551544, -0.08186613768339157, 0.1229516789317131, -0.032303422689437866, 0.13353009521961212, 0.1771196722984314, 0.3015279173851013, -0.2666582465171814, -0.10276748239994049, -0.06943818926811218, 0.138075590133667, 0.20105716586112976, -0.32348912954330444, -0.18997788429260254, -0.23587490618228912, 0.062277115881443024, -0.12771925330162048, 0.6166301965713501, -0.06611572206020355, 0.2042623907327652, 0.25305137038230896, -0.36461159586906433, -0.26323777437210083, 0.11748092621564865, 0.26898664236068726, 0.058152977377176285, 0.22167567908763885, -0.14359183609485626, 0.2782220244407654, 0.12090808153152466, -0.0075674355030059814, -0.14524582028388977, 0.30288273096084595, -0.06635074317455292, 0.19888199865818024, -0.15638616681098938, -0.5199601650238037, -0.14174231886863708, -0.36683201789855957, 0.48306331038475037, -0.12877203524112701, -0.3288714289665222, 0.11426400393247604, -0.18250127136707306, -0.10817663371562958, 0.08300791680812836, -0.032014671713113785, 0.33281567692756653, 0.26870301365852356, -0.12454351037740707, 0.018321502953767776, 0.06775928288698196, -0.018860338255763054, 0.020151780918240547, -0.0023200747091323137, 0.050539109855890274, 0.055777523666620255, -0.08895929902791977, 0.11998073011636734, 0.0625946968793869, 0.04851487651467323, 0.055711209774017334, -0.13413937389850616, -0.05327356979250908, 0.009805542416870594, 0.2529817223548889, -0.30754727125167847, -0.08591198176145554, -0.15781338512897491, 0.09950166940689087, -0.2332548350095749, 0.18421010673046112, -0.025790516287088394, -0.2697325050830841, 0.02475805953145027, -0.04179740324616432, 0.06840783357620239, 0.009708360768854618, 0.05447884649038315, -0.09082666784524918, 0.03314482048153877, 0.08549714088439941, 0.06891180574893951, -0.08828707784414291, -0.03699985519051552, 0.010134287178516388, 0.01849455200135708, 0.09099167585372925, -0.13908645510673523, 0.1265932023525238, -0.12353484332561493, 0.047622133046388626, 0.16732065379619598, -0.032146234065294266, 0.15426892042160034, 0.08962800353765488, 0.0010872551938518882, -0.18907693028450012, -0.004395310766994953, -0.16424794495105743, -0.28171563148498535, -0.0367470420897007, 0.08743511140346527, 0.10146266967058182, 0.019465643912553787, -0.061762046068906784, -0.09663733839988708, 0.1472378969192505, 0.0021743751130998135, 0.006719202268868685, 0.018738694489002228, 0.021734384819865227, 0.02156691439449787, -0.0848018079996109, -0.06794289499521255, 0.27862411737442017, -0.0992913544178009, 0.18157662451267242, -0.056115761399269104, -0.2903100848197937, -0.13819493353366852, 0.15961222350597382, 0.029960524290800095, -0.10020703822374344, 0.16515743732452393, 0.11267577856779099, 0.07405351847410202, -0.1253003478050232, 0.061751607805490494, 0.13864877820014954, -0.19946619868278503, -0.20650233328342438, 0.08082073926925659, 0.15140949189662933, -0.13641411066055298, 0.06495606899261475, -0.21490001678466797, -0.08379442244768143, -0.022308094426989555, 0.2444402128458023, 0.013074018992483616, 0.1237018033862114, -0.11749111115932465, 0.019002091139554977, -0.2856578528881073, 0.20983368158340454, -0.24917633831501007, -0.16998490691184998, 0.024050654843449593, -0.0003790926712099463, -0.22637492418289185, 0.11182700097560883, -0.003601495176553726, -0.19301998615264893, 0.15544989705085754, -0.0012605235679075122, 0.14323385059833527, -0.26990312337875366, -0.15709589421749115, -0.006051621865481138, -0.105723537504673, -0.134745255112648, 0.007480976637452841, 0.1888202428817749, -0.16508258879184723, -0.0018557069124653935, 0.44551852345466614, -0.014000040479004383, 0.3546316623687744, 0.04042657092213631, 0.005347464699298143, 0.0052391039207577705, -0.025422560051083565, -0.04886459931731224, -0.1319669932126999, -0.09363198280334473, -0.07247865945100784, -0.03255398944020271, 0.07255245000123978, -0.01376313716173172, -0.06245844438672066, -0.03910546377301216, 0.1394946128129959, -0.10331432521343231, -0.09247296303510666, -0.019762519747018814, -0.03897392377257347, -0.1707683652639389, 0.3241412341594696, -0.048046473413705826, 0.09045302867889404, 0.2278006374835968, 0.1832953244447708, 0.06279560923576355, -0.034047774970531464, 0.1455095410346985, 0.026258345693349838, -0.09798164665699005, -0.0403488352894783, -0.04677816852927208, -0.03573179990053177, 0.04689478874206543, 0.0017368071712553501, -0.24613657593727112, 0.03189455345273018, 0.04033593460917473, 0.2555414140224457, -0.08899813890457153, 0.10255596786737442, 0.0633954405784607, 0.013768043369054794, -0.06002703681588173, 0.08730422705411911, -0.2587522268295288, -0.024805936962366104, 0.17079328000545502, 0.1459796279668808, -0.08731082081794739, 0.11238053441047668, 0.04317687824368477, 0.00015430962957907468, 0.03587743639945984, -0.03345814347267151, 0.13291646540164948, -0.13224926590919495, -0.18388068675994873, 0.24496284127235413, 0.18037550151348114, -0.089969702064991, 0.11709752678871155, 0.12963904440402985, -0.09868572652339935, -0.02952468767762184, 0.04599236696958542, 0.06943631917238235, -0.03552977368235588, -0.1313851773738861, 0.00030689986306242645, 0.148265540599823, 0.052429188042879105, 0.19794441759586334, -0.16327302157878876, -0.0614754781126976, -0.08916626125574112, -0.1639426350593567, -0.019698385149240494, 0.13272406160831451, -0.11110448837280273, -0.033993374556303024, 0.17033794522285461, -0.2238420844078064, 0.10758531093597412, -0.14701370894908905, 0.27902039885520935, 0.14860790967941284, -0.0865161195397377, 0.06596747785806656, 0.017275283113121986, 0.11951889097690582, -0.12372423708438873, -0.04610686004161835, -0.04808090999722481, 0.001967410556972027, 0.17759527266025543, 0.1586729735136032, 0.07164459675550461, -0.06528197973966599, 0.1809820532798767, -0.13139115273952484, 0.053865138441324234, -0.04539736732840538, 0.16432145237922668, 0.06617241352796555, -0.15987110137939453, -0.011625438928604126, 0.16367001831531525, 0.016617711633443832, -0.06965398788452148, 0.06312679499387741, -0.01644895225763321, 0.08024618774652481, 0.001513118389993906, 0.08184784650802612, 0.03244321793317795, 0.11013757437467575, 0.02315542846918106, 0.2162131816148758, -0.04420468211174011, 0.14735238254070282, -0.2757224440574646, 0.031426385045051575, -0.13068054616451263, -0.23153716325759888, -0.17765484750270844, 0.14570264518260956, -0.05711514502763748, 0.03602975606918335, 0.12573480606079102, -0.12676826119422913, -0.021597275510430336, -0.059621695429086685, 0.2448129504919052, -0.02918385900557041, -0.025994503870606422, 0.14742816984653473, -0.1481340229511261, 0.14407110214233398, -0.04509757086634636, -0.23893797397613525, 0.2795758843421936, -0.102524533867836, -0.022410595789551735, 0.06214030459523201, 0.08722347021102905, 0.021775254979729652, -0.0156344473361969, -0.06711585074663162, -0.09307309985160828, -0.03645705059170723, -0.06997343897819519, 0.03416566923260689, 0.0009325274731963873, -0.0058020250871777534, 0.08765184879302979, 0.04007565602660179, -0.10071393847465515, -0.03246888890862465, 0.13046452403068542, -0.03026115521788597, -0.07038985192775726, -0.16822050511837006, 0.12908987700939178, -0.040251974016427994, 0.07351993024349213, -0.2255275547504425, 0.08659220486879349, -0.036109909415245056, 0.11361522227525711, -0.04059085622429848, 0.2175738662481308, 0.006417430005967617, 0.14026880264282227, -0.11584635078907013, -0.039310988038778305, -0.14848141372203827, -0.1524449586868286, 0.0696825236082077, -0.05847999453544617, 0.19506919384002686, -0.22363218665122986, 0.0011258197482675314, 0.20497295260429382, -0.03197791054844856, -0.13565999269485474, -0.0629444569349289, 0.1869325339794159, -0.07104963809251785, 0.11566071957349777, 